{"learner":{"attributes":{"scikit_learn":"{\"_estimator_type\": \"regressor\"}"},"feature_names":["price","floor_area_sqm","floor_area_sqft","price_psm","price_psf","Postal District","stratified_median_price","mom_change_pct","transaction_count","volume_3m_avg","volume_12m_avg","yoy_change_pct_lag2","acceleration_2y","trend_stability","amenity_density_500m","amenity_density_1km","is_hdb","is_condo","is_ec","log_price_psf"],"feature_types":["float","float","float","float","float","float","float","float","float","float","float","float","float","float","float","float","int","int","int","float"],"gradient_booster":{"model":{"cats":{"enc":[],"feature_segments":[],"sorted_idx":[]},"gbtree_model_param":{"num_parallel_tree":"1","num_trees":"200"},"iteration_indptr":[0,1,2,3,4,5,6,7,8,9,10,11,12,13,14,15,16,17,18,19,20,21,22,23,24,25,26,27,28,29,30,31,32,33,34,35,36,37,38,39,40,41,42,43,44,45,46,47,48,49,50,51,52,53,54,55,56,57,58,59,60,61,62,63,64,65,66,67,68,69,70,71,72,73,74,75,76,77,78,79,80,81,82,83,84,85,86,87,88,89,90,91,92,93,94,95,96,97,98,99,100,101,102,103,104,105,106,107,108,109,110,111,112,113,114,115,116,117,118,119,120,121,122,123,124,125,126,127,128,129,130,131,132,133,134,135,136,137,138,139,140,141,142,143,144,145,146,147,148,149,150,151,152,153,154,155,156,157,158,159,160,161,162,163,164,165,166,167,168,169,170,171,172,173,174,175,176,177,178,179,180,181,182,183,184,185,186,187,188,189,190,191,192,193,194,195,196,197,198,199,200],"tree_info":[0,0,0,0,0,0,0,0,0,0,0,0,0,0,0,0,0,0,0,0,0,0,0,0,0,0,0,0,0,0,0,0,0,0,0,0,0,0,0,0,0,0,0,0,0,0,0,0,0,0,0,0,0,0,0,0,0,0,0,0,0,0,0,0,0,0,0,0,0,0,0,0,0,0,0,0,0,0,0,0,0,0,0,0,0,0,0,0,0,0,0,0,0,0,0,0,0,0,0,0,0,0,0,0,0,0,0,0,0,0,0,0,0,0,0,0,0,0,0,0,0,0,0,0,0,0,0,0,0,0,0,0,0,0,0,0,0,0,0,0,0,0,0,0,0,0,0,0,0,0,0,0,0,0,0,0,0,0,0,0,0,0,0,0,0,0,0,0,0,0,0,0,0,0,0,0,0,0,0,0,0,0,0,0,0,0,0,0,0,0,0,0,0,0,0,0,0,0,0,0],"trees":[{"base_weights":[1.5100464E0,-3.1513323E1,1.4536702E3,-4.863596E1,3.753954E2,3.8840824E1,1.6015652E3,-6.841544E1,-9.7289777E-1,2.9432956E2,5.822469E2,7.446017E1,2.0671543E3,-9.469471E1,-5.6707565E1,-7.6086664E0,8.228966E1,2.1717511E2,1.7310705E1,3.084766E1,2.267127E1,1.1098804E2,5.8962948E1,-1.188508E2,-8.8995514E1,-6.585675E1,-4.89862E1,-2.2501312E1,9.394575E0,5.707378E1,1.1481732E2,1.6491183E2,1.1812034E1,-6.7214785E0,-5.5527544E0,-4.675548E0,-4.08576E0,-3.572469E0,-3.1765022E0,-2.615976E0,-2.1060665E0,-1.3746278E0,-6.928885E-1,1.9579369E-1,9.9819165E-1,2.5999901E0,3.568163E0,6.2390313E0,5.0812955E0,6.724997E0,9.652332E0],"categories":[],"categories_nodes":[],"categories_segments":[],"categories_sizes":[],"default_left":[0,0,0,0,0,0,0,0,0,0,0,0,0,0,0,0,0,0,0,0,0,0,0,0,0,0,0,0,0,0,0,0,0,0,0,0,0,0,0,0,0,0,0,0,0,0,0,0,0,0,0],"id":0,"left_children":[1,3,5,7,9,-1,11,13,15,17,19,-1,21,23,25,27,29,31,-1,-1,-1,-1,-1,33,35,37,39,41,43,45,47,49,-1,-1,-1,-1,-1,-1,-1,-1,-1,-1,-1,-1,-1,-1,-1,-1,-1,-1,-1],"loss_changes":[5.780021E8,8.212848E7,2.5583552E7,1.0662444E7,7.810476E6,0E0,8.378432E6,2.453868E6,1.8338578E6,1.301884E6,3.14892E5,0E0,2.802272E6,3.28368E5,3.87578E5,7.7861975E5,1.9439925E5,1.015375E5,0E0,0E0,0E0,0E0,0E0,4.17875E4,5.7975E4,2.8369E4,6.65365E4,7.032881E4,8.3074555E4,6.43975E3,1.250625E3,9.11625E3,0E0,0E0,0E0,0E0,0E0,0E0,0E0,0E0,0E0,0E0,0E0,0E0,0E0,0E0,0E0,0E0,0E0,0E0,0E0],"parents":[2147483647,0,0,1,1,2,2,3,3,4,4,6,6,7,7,8,8,9,9,10,10,12,12,13,13,14,14,15,15,16,16,17,17,23,23,24,24,25,25,26,26,27,27,28,28,29,29,30,30,31,31],"right_children":[2,4,6,8,10,-1,12,14,16,18,20,-1,22,24,26,28,30,32,-1,-1,-1,-1,-1,34,36,38,40,42,44,46,48,50,-1,-1,-1,-1,-1,-1,-1,-1,-1,-1,-1,-1,-1,-1,-1,-1,-1,-1,-1],"split_conditions":[8.416667E2,1.8571428E2,1.3513514E1,1.4285714E1,4.8235294E2,3.8840824E1,7.401816E2,-2.6666666E1,9.3333336E1,3.473684E2,2.2E1,7.446017E1,1.702E3,-5.483871E1,-8.1081085E0,4.2953022E1,1.5066667E2,2.742857E2,1.7310705E1,3.084766E1,2.267127E1,1.1098804E2,5.8962948E1,-7.313433E1,-3.846154E1,-1.8181818E1,1.7857143E0,2.8571428E1,6.455696E1,1.125E2,-6.766917E0,3.4E1,1.1812034E1,-6.7214785E0,-5.5527544E0,-4.675548E0,-4.08576E0,-3.572469E0,-3.1765022E0,-2.615976E0,-2.1060665E0,-1.3746278E0,-6.928885E-1,1.9579369E-1,9.9819165E-1,2.5999901E0,3.568163E0,6.2390313E0,5.0812955E0,6.724997E0,9.652332E0],"split_indices":[11,11,7,11,11,0,13,11,11,11,5,0,4,11,11,11,11,11,0,0,0,0,0,11,11,11,11,11,11,11,7,8,0,0,0,0,0,0,0,0,0,0,0,0,0,0,0,0,0,0,0],"split_type":[0,0,0,0,0,0,0,0,0,0,0,0,0,0,0,0,0,0,0,0,0,0,0,0,0,0,0,0,0,0,0,0,0,0,0,0,0,0,0,0,0,0,0,0,0,0,0,0,0,0,0],"sum_hessian":[1.2051E4,1.1784E4,2.67E2,1.1309E4,4.75E2,4.9E1,2.18E2,7.992E3,3.317E3,3.43E2,1.32E2,1.79E2,3.9E1,2.461E3,5.531E3,3.073E3,2.44E2,1.4E2,2.03E2,1.01E2,3.1E1,3.2E1,7E0,4.66E2,1.995E3,2.528E3,3.003E3,1.638E3,1.435E3,1.39E2,1.05E2,4E1,1E2,1.5E2,3.16E2,1.224E3,7.71E2,7.34E2,1.794E3,2.017E3,9.86E2,1.037E3,6.01E2,9.46E2,4.89E2,1.06E2,3.3E1,5.5E1,5E1,2.2E1,1.8E1],"tree_param":{"num_deleted":"0","num_feature":"20","num_nodes":"51","size_leaf_vector":"1"}},{"base_weights":[5.0661016E-1,-3.0431752E0,1.9509292E3,1.0883555E2,-4.6731377E1,1.12934044E2,5.6501446E1,7.319295E2,4.1509953E1,-5.034815E1,9.994705E2,-2.8628263E1,7.091723E1,2.6876118E1,1.7008965E2,-5.3434547E1,6.157442E1,8.925944E0,9.328196E1,1.2501705E2,-3.8747894E1,5.4638424E1,-2.2462654E1,2.9351856E1,-1.1554638E1,-5.761479E1,2.640521E0,2.0568166E2,-6.7879496E0,-2.3917177E0,2.0089252E1,1.0218688E1,-2.2555714E0,-9.192584E-1,-3.8189323E0,-1.4720164E-1,7.5161843E0,-1.7600132E0,4.4512177E0,2.1481893E0,-9.085706E-1,-3.082482E0,-2.169207E0,-1.2626711E0,2.817727E-1,5.812208E0,1.3136172E1,-1.328699E0,3.9588888E0],"categories":[],"categories_nodes":[],"categories_segments":[],"categories_sizes":[],"default_left":[0,0,0,0,0,0,0,0,0,0,0,0,0,0,0,0,0,0,0,0,0,0,0,0,0,0,0,0,0,0,0,0,0,0,0,0,0,0,0,0,0,0,0,0,0,0,0,0,0],"id":1,"left_children":[1,3,5,7,9,-1,-1,11,13,15,17,19,-1,21,23,25,27,29,-1,31,33,35,37,-1,39,41,43,45,47,-1,-1,-1,-1,-1,-1,-1,-1,-1,-1,-1,-1,-1,-1,-1,-1,-1,-1,-1,-1],"loss_changes":[8.384359E7,5.9088572E7,3.005552E6,1.4239045E8,3.294732E7,0E0,0E0,1.7284189E8,5.7625765E6,2.996508E6,2.5722706E7,2.5050788E5,0E0,3.772171E6,2.3712186E7,1.97691E6,2.2967982E6,3.537011E5,0E0,1.4422794E5,1.127692E5,9.708698E6,1.4118512E6,0E0,7.97819E4,4.47948E5,4.9097035E4,3.520855E5,2.7255038E5,0E0,0E0,0E0,0E0,0E0,0E0,0E0,0E0,0E0,0E0,0E0,0E0,0E0,0E0,0E0,0E0,0E0,0E0,0E0,0E0],"parents":[2147483647,0,0,1,1,2,2,3,3,4,4,7,7,8,8,9,9,10,10,11,11,13,13,14,14,15,15,16,16,17,17,19,19,20,20,21,21,22,22,24,24,25,25,26,26,27,27,28,28],"right_children":[2,4,6,8,10,-1,-1,12,14,16,18,20,-1,22,24,26,28,30,-1,32,34,36,38,-1,40,42,44,46,48,-1,-1,-1,-1,-1,-1,-1,-1,-1,-1,-1,-1,-1,-1,-1,-1,-1,-1,-1,-1],"split_conditions":[5.33E2,2.0085883E-1,1.9E1,2.9E1,2.2E2,1.12934044E2,5.6501446E1,3.3E1,1.58E2,9.174897E1,2.2E1,2.3E1,7.091723E1,1.3766667E2,1.88E2,4.0466666E2,3.4916668E1,1.43E2,9.328196E1,2.4666666E1,3.1416666E1,9.5333336E1,1.81E2,2.9351856E1,1.95E2,2.7E1,9E1,2E1,1.03333336E2,-2.3917177E0,2.0089252E1,1.0218688E1,-2.2555714E0,-9.192584E-1,-3.8189323E0,-1.4720164E-1,7.5161843E0,-1.7600132E0,4.4512177E0,2.1481893E0,-9.085706E-1,-3.082482E0,-2.169207E0,-1.2626711E0,2.817727E-1,5.812208E0,1.3136172E1,-1.328699E0,3.9588888E0],"split_indices":[8,13,5,9,8,0,0,8,10,13,5,5,0,9,8,9,10,1,0,9,10,10,9,0,9,5,8,5,9,0,0,0,0,0,0,0,0,0,0,0,0,0,0,0,0,0,0,0,0],"split_type":[0,0,0,0,0,0,0,0,0,0,0,0,0,0,0,0,0,0,0,0,0,0,0,0,0,0,0,0,0,0,0,0,0,0,0,0,0,0,0,0,0,0,0,0,0,0,0,0,0],"sum_hessian":[1.2108E4,1.2087E4,2.1E1,3.394E3,8.693E3,1.4E1,7E0,3.3E2,3.064E3,8.664E3,2.9E1,1.57E2,1.73E2,2.752E3,3.12E2,8.432E3,2.32E2,1.4E1,1.5E1,9E0,1.48E2,1.761E3,9.91E2,9.4E1,2.18E2,7.847E3,5.85E2,7.4E1,1.58E2,1.3E1,1E0,6E0,3E0,9.7E1,5.1E1,1.1E3,6.61E2,8.9E2,1.01E2,2.3E1,1.95E2,6.111E3,1.736E3,5.6E1,5.29E2,3E1,4.4E1,1.29E2,2.9E1],"tree_param":{"num_deleted":"0","num_feature":"20","num_nodes":"49","size_leaf_vector":"1"}},{"base_weights":[8.51836E-1,-2.8160109E1,1.2962759E3,-4.336826E1,3.6509882E2,7.886783E2,1.45145E3,-6.241321E1,2.0731027E0,2.8458292E2,5.3149774E2,3.6693584E1,5.402951E1,6.738721E1,9.988239E1,-8.7026566E1,-5.1744476E1,-5.6699047E0,8.5766624E1,1.0798184E1,1.6122543E1,2.7959198E1,2.1155218E1,-1.0422553E2,-7.989738E1,-5.9953503E1,-4.462348E1,-2.0477575E1,8.826565E0,5.426533E1,1.1870085E2,-6.0984282E0,-4.874513E0,-4.1751056E0,-3.6988187E0,-3.2794664E0,-2.9007893E0,-2.3629878E0,-1.9004225E0,-1.2234046E0,-6.2789935E-1,1.450011E-1,9.5872635E-1,2.4105213E0,3.5481706E0,5.312385E0,7.37942E0],"categories":[],"categories_nodes":[],"categories_segments":[],"categories_sizes":[],"default_left":[0,0,0,0,0,0,0,0,0,0,0,0,0,0,0,0,0,0,0,0,0,0,0,0,0,0,0,0,0,0,0,0,0,0,0,0,0,0,0,0,0,0,0,0,0,0,0],"id":2,"left_children":[1,3,5,7,9,11,13,15,17,19,21,-1,-1,-1,-1,23,25,27,29,-1,-1,-1,-1,31,33,35,37,39,41,43,45,-1,-1,-1,-1,-1,-1,-1,-1,-1,-1,-1,-1,-1,-1,-1,-1],"loss_changes":[4.5294653E8,7.051681E7,1.9649472E7,9.822742E6,5.73036E6,2.309E5,8.69312E6,2.09572E6,2.173363E6,7.04706E5,1.89548E5,0E0,0E0,0E0,0E0,2.88032E5,3.2363E5,6.591837E5,2.8820038E5,0E0,0E0,0E0,0E0,7.23595E4,3.0385E4,2.4479E4,5.0399E4,4.7698062E4,9.512488E4,1.1441281E4,3.3963375E4,0E0,0E0,0E0,0E0,0E0,0E0,0E0,0E0,0E0,0E0,0E0,0E0,0E0,0E0,0E0,0E0],"parents":[2147483647,0,0,1,1,2,2,3,3,4,4,5,5,6,6,7,7,8,8,9,9,10,10,15,15,16,16,17,17,18,18,23,23,24,24,25,25,26,26,27,27,28,28,29,29,30,30],"right_children":[2,4,6,8,10,12,14,16,18,20,22,-1,-1,-1,-1,24,26,28,30,-1,-1,-1,-1,32,34,36,38,40,42,44,46,-1,-1,-1,-1,-1,-1,-1,-1,-1,-1,-1,-1,-1,-1,-1,-1],"split_conditions":[8.416667E2,2.742857E2,1.55E3,1.6666666E1,4.8235294E2,4.99E2,4.35E5,-2.6666666E1,9.3333336E1,3.473684E2,2.2E1,3.6693584E1,5.402951E1,6.738721E1,9.988239E1,-4.857143E1,-7.6923075E0,4.108527E1,1.5066667E2,1.0798184E1,1.6122543E1,2.7959198E1,2.1155218E1,-6.803278E1,-3.6607143E1,-1.9248827E1,2.9411764E0,2.8571428E1,5.7692307E1,1.125E2,1.8571428E2,-6.0984282E0,-4.874513E0,-4.1751056E0,-3.6988187E0,-3.2794664E0,-2.9007893E0,-2.3629878E0,-1.9004225E0,-1.2234046E0,-6.2789935E-1,1.450011E-1,9.5872635E-1,2.4105213E0,3.5481706E0,5.312385E0,7.37942E0],"split_indices":[11,11,11,11,11,8,6,11,11,11,5,0,0,0,0,11,11,11,11,0,0,0,0,11,11,11,11,11,11,11,11,0,0,0,0,0,0,0,0,0,0,0,0,0,0,0,0],"split_type":[0,0,0,0,0,0,0,0,0,0,0,0,0,0,0,0,0,0,0,0,0,0,0,0,0,0,0,0,0,0,0,0,0,0,0,0,0,0,0,0,0,0,0,0,0,0,0],"sum_hessian":[1.205E4,1.1787E4,2.63E2,1.1349E4,4.38E2,6.3E1,2E2,7.997E3,3.352E3,2.97E2,1.41E2,5.6E1,7E0,1.71E2,2.9E1,2.416E3,5.581E3,3.069E3,2.83E2,1.08E2,1.89E2,1.09E2,3.2E1,7.04E2,1.712E3,2.589E3,2.992E3,1.518E3,1.551E3,1.46E2,1.37E2,1.89E2,5.15E2,1.056E3,6.56E2,6.54E2,1.935E3,2.135E3,8.57E2,1.008E3,5.1E2,9.87E2,5.64E2,1.1E2,3.6E1,9.9E1,3.8E1],"tree_param":{"num_deleted":"0","num_feature":"20","num_nodes":"47","size_leaf_vector":"1"}},{"base_weights":[7.4371254E-1,-2.662227E1,1.2347169E3,-4.136483E1,3.4749667E2,3.4798637E1,1.3616362E3,-5.95208E1,1.9009376E0,2.7230075E2,5.0928992E2,6.4054085E1,1.772205E3,-8.259619E1,-4.9151787E1,-5.434124E0,8.200764E1,1.03009615E1,1.5303111E1,2.6683765E1,2.0277296E1,4.5655087E1,9.4873985E1,-9.98738E1,-7.6253334E1,-5.7248814E1,-4.2624294E1,-1.9888988E1,8.0188265E0,5.043165E1,1.1505936E2,-5.7991633E0,-4.65546E0,-3.9968908E0,-3.542333E0,-3.1166906E0,-2.7692356E0,-2.366882E0,-1.9519612E0,-1.163806E0,-6.2393796E-1,1.1933793E-1,8.9402705E-1,2.2723691E0,3.3383927E0,5.088953E0,7.1337404E0],"categories":[],"categories_nodes":[],"categories_segments":[],"categories_sizes":[],"default_left":[0,0,0,0,0,0,0,0,0,0,0,0,0,0,0,0,0,0,0,0,0,0,0,0,0,0,0,0,0,0,0,0,0,0,0,0,0,0,0,0,0,0,0,0,0,0,0],"id":3,"left_children":[1,3,5,7,9,-1,11,13,15,17,19,-1,21,23,25,27,29,-1,-1,-1,-1,-1,-1,31,33,35,37,39,41,43,45,-1,-1,-1,-1,-1,-1,-1,-1,-1,-1,-1,-1,-1,-1,-1,-1],"loss_changes":[4.0779222E8,6.5174148E7,1.6967136E7,8.929258E6,5.311772E6,0E0,4.708128E6,1.911768E6,1.9753275E6,6.26176E5,1.40276E5,0E0,1.711368E6,2.64272E5,2.8968E5,5.9909806E5,2.8850388E5,0E0,0E0,0E0,0E0,0E0,0E0,6.1451E4,3.0573E4,1.9903E4,4.99265E4,3.6982188E4,8.860209E4,8.853469E3,3.572225E4,0E0,0E0,0E0,0E0,0E0,0E0,0E0,0E0,0E0,0E0,0E0,0E0,0E0,0E0,0E0,0E0],"parents":[2147483647,0,0,1,1,2,2,3,3,4,4,6,6,7,7,8,8,9,9,10,10,12,12,13,13,14,14,15,15,16,16,23,23,24,24,25,25,26,26,27,27,28,28,29,29,30,30],"right_children":[2,4,6,8,10,-1,12,14,16,18,20,-1,22,24,26,28,30,-1,-1,-1,-1,-1,-1,32,34,36,38,40,42,44,46,-1,-1,-1,-1,-1,-1,-1,-1,-1,-1,-1,-1,-1,-1,-1,-1],"split_conditions":[8.416667E2,2.742857E2,1.3513514E1,1.6666666E1,4.8235294E2,3.4798637E1,4.35E5,-2.6666666E1,9.3333336E1,3.473684E2,2.2E1,6.4054085E1,1.55E3,-5.1748253E1,-8.77193E0,4.054054E1,1.5066667E2,1.03009615E1,1.5303111E1,2.6683765E1,2.0277296E1,4.5655087E1,9.4873985E1,-6.803278E1,-3.7142857E1,-1.9248827E1,-1.5267175E0,2.8571428E1,5.7692307E1,1.125E2,1.8571428E2,-5.7991633E0,-4.65546E0,-3.9968908E0,-3.542333E0,-3.1166906E0,-2.7692356E0,-2.366882E0,-1.9519612E0,-1.163806E0,-6.2393796E-1,1.1933793E-1,8.9402705E-1,2.2723691E0,3.3383927E0,5.088953E0,7.1337404E0],"split_indices":[11,11,7,11,11,0,6,11,11,11,5,0,11,11,11,11,11,0,0,0,0,0,0,11,11,11,11,11,11,11,11,0,0,0,0,0,0,0,0,0,0,0,0,0,0,0,0],"split_type":[0,0,0,0,0,0,0,0,0,0,0,0,0,0,0,0,0,0,0,0,0,0,0,0,0,0,0,0,0,0,0,0,0,0,0,0,0,0,0,0,0,0,0,0,0,0,0],"sum_hessian":[1.2074E4,1.1813E4,2.61E2,1.1366E4,4.47E2,5.1E1,2.1E2,8.006E3,3.36E3,3.07E2,1.4E2,1.79E2,3.1E1,2.48E3,5.526E3,3.079E3,2.81E2,1.06E2,2.01E2,1.1E2,3E1,5E0,2.6E1,6.62E2,1.818E3,2.463E3,3.063E3,1.484E3,1.595E3,1.45E2,1.36E2,1.91E2,4.71E2,1.073E3,7.45E2,6.52E2,1.811E3,1.318E3,1.745E3,1.017E3,4.67E2,1.016E3,5.79E2,1.14E2,3.1E1,9.5E1,4.1E1],"tree_param":{"num_deleted":"0","num_feature":"20","num_nodes":"47","size_leaf_vector":"1"}},{"base_weights":[3.4558743E-1,-2.637258E1,1.1911244E3,-3.9991062E1,3.069246E2,3.305244E1,1.3058586E3,-5.6837933E1,-4.237437E-1,2.4376022E2,2.4145937E1,1.2456746E3,9.901522E1,-7.895553E1,-4.715394E1,-7.0702553E0,5.5297356E1,1.7950346E2,1.4535457E1,6.241987E1,1.7528303E1,-9.957917E1,-7.3981415E1,-5.4551952E1,-4.0896957E1,-1.9327818E1,5.867997E0,3.6801216E1,8.8534096E1,1.3842722E2,9.785332E0,-5.67547E0,-4.620359E0,-3.9312599E0,-3.462364E0,-2.9546955E0,-2.6238248E0,-2.2479181E0,-1.8759444E0,-1.2628812E0,-7.4914336E-1,1.05531946E-1,6.685369E-1,1.5323821E0,2.1760223E0,5.2625976E0,3.8593864E0,8.494457E0,5.5580206E0],"categories":[],"categories_nodes":[],"categories_segments":[],"categories_sizes":[],"default_left":[0,0,0,0,0,0,0,0,0,0,0,0,0,0,0,0,0,0,0,0,0,0,0,0,0,0,0,0,0,0,0,0,0,0,0,0,0,0,0,0,0,0,0,0,0,0,0,0,0],"id":4,"left_children":[1,3,5,7,9,-1,11,13,15,17,-1,19,-1,21,23,25,27,29,-1,-1,-1,31,33,35,37,39,41,43,45,47,-1,-1,-1,-1,-1,-1,-1,-1,-1,-1,-1,-1,-1,-1,-1,-1,-1,-1,-1],"loss_changes":[3.8273917E8,5.341816E7,1.5192704E7,7.535724E6,5.018136E6,0E0,6.3008E6,1.694562E6,1.2510661E6,9.79558E5,0E0,5.2192E4,0E0,2.40168E5,2.53147E5,4.7874238E5,2.1805225E5,7.0747E4,0E0,0E0,0E0,3.6068E4,3.7382E4,2.07015E4,3.93765E4,3.9556812E4,4.13836E4,8.300094E3,1.615575E4,1.9719E4,0E0,0E0,0E0,0E0,0E0,0E0,0E0,0E0,0E0,0E0,0E0,0E0,0E0,0E0,0E0,0E0,0E0,0E0,0E0],"parents":[2147483647,0,0,1,1,2,2,3,3,4,4,6,6,7,7,8,8,9,9,11,11,13,13,14,14,15,15,16,16,17,17,21,21,22,22,23,23,24,24,25,25,26,26,27,27,28,28,29,29],"right_children":[2,4,6,8,10,-1,12,14,16,18,-1,20,-1,22,24,26,28,30,-1,-1,-1,32,34,36,38,40,42,44,46,48,-1,-1,-1,-1,-1,-1,-1,-1,-1,-1,-1,-1,-1,-1,-1,-1,-1,-1,-1],"split_conditions":[8.416667E2,1.8571428E2,1.3513514E1,1.2307693E1,4.8235294E2,3.305244E1,1.072E3,-2.7868853E1,7.692308E1,3.473684E2,2.4145937E1,2.14E2,9.901522E1,-5.483871E1,-8.77193E0,4.054054E1,1.125E2,2.742857E2,1.4535457E1,6.241987E1,1.7528303E1,-7.313433E1,-4.0298508E1,-1.8181818E1,-1.5267175E0,2.2222221E1,5.6074768E1,9.3333336E1,4.65444E5,5.48E5,9.785332E0,-5.67547E0,-4.620359E0,-3.9312599E0,-3.462364E0,-2.9546955E0,-2.6238248E0,-2.2479181E0,-1.8759444E0,-1.2628812E0,-7.4914336E-1,1.05531946E-1,6.685369E-1,1.5323821E0,2.1760223E0,5.2625976E0,3.8593864E0,8.494457E0,5.5580206E0],"split_indices":[11,11,7,11,11,0,8,11,11,11,0,1,0,11,11,11,11,11,0,0,0,11,11,11,11,11,11,11,6,6,0,0,0,0,0,0,0,0,0,0,0,0,0,0,0,0,0,0,0],"split_type":[0,0,0,0,0,0,0,0,0,0,0,0,0,0,0,0,0,0,0,0,0,0,0,0,0,0,0,0,0,0,0,0,0,0,0,0,0,0,0,0,0,0,0,0,0,0,0,0,0],"sum_hessian":[1.2028E4,1.1765E4,2.63E2,1.1304E4,4.61E2,4.8E1,2.15E2,7.928E3,3.376E3,3.41E2,1.2E2,2E2,1.5E1,2.412E3,5.516E3,3.017E3,3.59E2,1.46E2,1.95E2,1.99E2,1E0,4.65E2,1.947E3,2.524E3,2.992E3,1.549E3,1.468E3,2.32E2,1.27E2,4.4E1,1.02E2,1.53E2,3.12E2,9.75E2,9.72E2,7.83E2,1.741E3,1.353E3,1.639E3,6.53E2,8.96E2,9.79E2,4.89E2,1.24E2,1.08E2,4.8E1,7.9E1,1.8E1,2.6E1],"tree_param":{"num_deleted":"0","num_feature":"20","num_nodes":"49","size_leaf_vector":"1"}},{"base_weights":[-2.2414045E-1,-2.221152E1,4.9705896E2,5.072173E1,-4.028393E1,5.776005E1,1.5094002E2,3.3394264E1,3.8716177E2,-4.2209232E1,6.742626E1,-2.9612883E1,1.6205626E3,-5.56135E0,9.126109E1,1.7165987E0,2.3847397E1,-4.581871E1,1.9935623E-1,-4.088136E1,1.7891286E2,-3.6756386E1,1.1996469E2,8.635465E1,4.586381E1,3.1915984E0,-2.8677004E1,5.8608624E2,5.772494E1,-3.209183E1,-5.1255524E1,-2.7903938E1,3.321637E0,-1.0909729E-2,-4.9010876E1,5.0030656E0,2.3977052E2,-4.6714302E1,-2.402913E0,3.8303916E0,1.7090096E1,-3.791316E-2,7.814016E0,-2.7270951E0,-1.1512948E0,3.1390837E1,1.7914827E1,1.1617647E0,1.1292503E1,-1.7724231E0,1.14947215E-1,-2.813399E0,-1.6989058E0,-1.0228132E0,-3.3672516E0,2.9157576E-1,-6.052555E-1,-2.6729746E0,-8.4866184E-1,9.125042E0,1.355955E1,1.9598559E0,-2.5881052E0,-2.6071668E0,8.6680317E-1],"categories":[],"categories_nodes":[],"categories_segments":[],"categories_sizes":[],"default_left":[0,0,0,0,0,0,0,0,0,0,0,0,0,0,0,0,0,0,0,0,0,0,0,0,0,0,0,0,0,0,0,0,0,0,0,0,0,0,0,0,0,0,0,0,0,0,0,0,0,0,0,0,0,0,0,0,0,0,0,0,0,0,0,0,0],"id":5,"left_children":[1,3,5,7,9,-1,11,13,15,17,19,21,23,25,27,-1,-1,29,31,33,35,37,39,-1,-1,41,43,45,47,49,51,53,55,-1,57,-1,59,61,63,-1,-1,-1,-1,-1,-1,-1,-1,-1,-1,-1,-1,-1,-1,-1,-1,-1,-1,-1,-1,-1,-1,-1,-1,-1,-1],"loss_changes":[1.3272736E8,1.5324722E7,1.1691248E8,1.3447744E7,1.934953E6,0E0,8.973447E7,4.953068E6,3.563378E6,1.401238E6,1.9875892E6,3.2709894E5,1.187872E6,2.659533E5,1.4635734E7,0E0,0E0,6.27938E5,6.318233E4,2.7757344E4,3.647045E5,9.87515E4,1.0846959E5,0E0,0E0,5.769825E5,5.150978E4,3.07378E5,4.801772E6,2.76669E5,5.21251E5,1.9771969E4,2.516067E4,0E0,9.06925E3,0E0,3.14825E4,9.916959E4,6.570441E4,0E0,0E0,0E0,0E0,0E0,0E0,0E0,0E0,0E0,0E0,0E0,0E0,0E0,0E0,0E0,0E0,0E0,0E0,0E0,0E0,0E0,0E0,0E0,0E0,0E0,0E0],"parents":[2147483647,0,0,1,1,2,2,3,3,4,4,6,6,7,7,8,8,9,9,10,10,11,11,12,12,13,13,14,14,17,17,18,18,19,19,20,20,21,21,22,22,25,25,26,26,27,27,28,28,29,29,30,30,31,31,32,32,34,34,36,36,37,37,38,38],"right_children":[2,4,6,8,10,-1,12,14,16,18,20,22,24,26,28,-1,-1,30,32,34,36,38,40,-1,-1,42,44,46,48,50,52,54,56,-1,58,-1,60,62,64,-1,-1,-1,-1,-1,-1,-1,-1,-1,-1,-1,-1,-1,-1,-1,-1,-1,-1,-1,-1,-1,-1,-1,-1,-1,-1],"split_conditions":[7.368421E1,4.85E5,4.35E5,1.4575E2,9.4318436E1,5.776005E1,7.401816E2,1.02666664E2,4.739022E5,2.3633333E2,6.793333E5,4.8040424E1,1.8320328E4,2.0085883E-1,1.03833336E2,1.7165987E0,2.3847397E1,5.49444E5,9E1,3.8E1,1.5600037E2,3.4265938E1,1.9E6,8.635465E1,4.586381E1,9.5333336E1,-1.5827338E1,4.6817203E5,4.8E5,5.45E5,1.1875E1,1.5377679E6,1.9516667E2,-1.0909729E-2,-7.2916665E0,5.0030656E0,1.4E6,2.0085883E-1,8.875E5,3.8303916E0,1.7090096E1,-3.791316E-2,7.814016E0,-2.7270951E0,-1.1512948E0,3.1390837E1,1.7914827E1,1.1617647E0,1.1292503E1,-1.7724231E0,1.14947215E-1,-2.813399E0,-1.6989058E0,-1.0228132E0,-3.3672516E0,2.9157576E-1,-6.052555E-1,-2.6729746E0,-8.4866184E-1,9.125042E0,1.355955E1,1.9598559E0,-2.5881052E0,-2.6071668E0,8.6680317E-1],"split_indices":[7,6,6,10,13,0,13,10,6,9,6,13,3,13,10,0,0,6,8,8,13,13,0,0,0,10,7,6,6,6,7,6,10,0,7,0,6,13,6,0,0,0,0,0,0,0,0,0,0,0,0,0,0,0,0,0,0,0,0,0,0,0,0,0,0],"split_type":[0,0,0,0,0,0,0,0,0,0,0,0,0,0,0,0,0,0,0,0,0,0,0,0,0,0,0,0,0,0,0,0,0,0,0,0,0,0,0,0,0,0,0,0,0,0,0,0,0,0,0,0,0,0,0,0,0,0,0,0,0,0,0,0,0],"sum_hessian":[1.2137E4,1.1624E4,5.13E2,2.308E3,9.316E3,1.76E2,3.37E2,2.196E3,1.12E2,9.153E3,1.63E2,3.01E2,3.6E1,1.313E3,8.83E2,2.3E1,8.9E1,8.435E3,7.18E2,8.3E1,8E1,2.88E2,1.3E1,3E1,6E0,9.53E2,3.6E2,5.5E1,8.28E2,2.395E3,6.04E3,7.1E1,6.47E2,1.4E1,6.9E1,3.6E1,4.4E1,2.23E2,6.5E1,1.2E1,1E0,9.3E2,2.3E1,6.3E1,2.97E2,4.5E1,1E1,6.88E2,1.4E2,2.182E3,2.13E2,4.68E3,1.36E3,6.1E1,1E1,5.57E2,9E1,6E1,9E0,1.8E1,2.6E1,1.2E1,2.11E2,1.8E1,4.7E1],"tree_param":{"num_deleted":"0","num_feature":"20","num_nodes":"65","size_leaf_vector":"1"}},{"base_weights":[-1.8568176E-1,-2.3425549E1,1.0719476E3,-3.5849422E1,3.002202E2,2.9896036E1,1.1789784E3,-5.0032074E1,6.308438E0,2.3798341E2,4.352998E2,5.4757275E1,1.5733296E3,-7.128366E1,-4.069784E1,-3.4440324E-1,7.974378E1,9.136254E0,1.3340042E1,2.2921856E1,1.745957E1,4.2498913E1,8.343679E1,-8.7347725E1,-6.5228165E1,-4.735832E1,-3.310975E1,-1.2639354E1,1.0221814E1,5.1586403E1,9.956983E1,-5.0125365E0,-4.0214953E0,-3.4105778E0,-2.9416873E0,-2.514619E0,-2.2005825E0,-1.7950938E0,-1.2393049E0,-8.3086395E-1,-3.5734367E-1,3.3158568E-1,1.4484509E0,2.1999958E0,3.1657374E0,6.3988543E0,4.4711504E0],"categories":[],"categories_nodes":[],"categories_segments":[],"categories_sizes":[],"default_left":[0,0,0,0,0,0,0,0,0,0,0,0,0,0,0,0,0,0,0,0,0,0,0,0,0,0,0,0,0,0,0,0,0,0,0,0,0,0,0,0,0,0,0,0,0,0,0],"id":6,"left_children":[1,3,5,7,9,-1,11,13,15,17,19,-1,21,23,25,27,29,-1,-1,-1,-1,-1,-1,31,33,35,37,39,41,43,45,-1,-1,-1,-1,-1,-1,-1,-1,-1,-1,-1,-1,-1,-1,-1,-1],"loss_changes":[2.994684E8,4.731303E7,1.2232608E7,6.774641E6,3.553416E6,0E0,5.120352E6,1.678858E6,1.3938711E6,4.28972E5,1.10874E5,0E0,9.28024E5,2.45857E5,2.96266E5,3.401066E5,1.27168625E5,0E0,0E0,0E0,0E0,0E0,0E0,5.4866E4,3.189E4,2.858E4,6.3208E4,2.6318125E4,9.457242E4,6.111875E3,2.8333625E4,0E0,0E0,0E0,0E0,0E0,0E0,0E0,0E0,0E0,0E0,0E0,0E0,0E0,0E0,0E0,0E0],"parents":[2147483647,0,0,1,1,2,2,3,3,4,4,6,6,7,7,8,8,9,9,10,10,12,12,13,13,14,14,15,15,16,16,23,23,24,24,25,25,26,26,27,27,28,28,29,29,30,30],"right_children":[2,4,6,8,10,-1,12,14,16,18,20,-1,22,24,26,28,30,-1,-1,-1,-1,-1,-1,32,34,36,38,40,42,44,46,-1,-1,-1,-1,-1,-1,-1,-1,-1,-1,-1,-1,-1,-1,-1,-1],"split_conditions":[8.416667E2,2.742857E2,1.3513514E1,2E1,4.8235294E2,2.9896036E1,7.401816E2,-2.5E1,1E2,3.473684E2,2E1,5.4757275E1,1.55E3,-4.857143E1,-4.8128343E0,4.5323742E1,1.5066667E2,9.136254E0,1.3340042E1,2.2921856E1,1.745957E1,4.2498913E1,8.343679E1,-6.610169E1,-3.4444443E1,-1.4634147E1,1.0526316E1,3.2592594E1,6.7741936E1,1.125E2,-8.928572E0,-5.0125365E0,-4.0214953E0,-3.4105778E0,-2.9416873E0,-2.514619E0,-2.2005825E0,-1.7950938E0,-1.2393049E0,-8.3086395E-1,-3.5734367E-1,3.3158568E-1,1.4484509E0,2.1999958E0,3.1657374E0,6.3988543E0,4.4711504E0],"split_indices":[11,11,7,11,11,0,13,11,11,11,5,0,11,11,11,11,11,0,0,0,0,0,0,11,11,11,11,11,11,11,7,0,0,0,0,0,0,0,0,0,0,0,0,0,0,0,0],"split_type":[0,0,0,0,0,0,0,0,0,0,0,0,0,0,0,0,0,0,0,0,0,0,0,0,0,0,0,0,0,0,0,0,0,0,0,0,0,0,0,0,0,0,0,0,0,0,0],"sum_hessian":[1.2017E4,1.1763E4,2.54E2,1.1329E4,4.34E2,4.8E1,2.06E2,8.477E3,2.852E3,2.99E2,1.35E2,1.73E2,3.3E1,2.585E3,5.892E3,2.616E3,2.36E2,1.05E2,1.94E2,1.03E2,3.2E1,5E0,2.8E1,7.04E2,1.881E3,3.135E3,2.757E3,1.209E3,1.407E3,9.9E1,1.37E2,2.41E2,4.63E2,1.276E3,6.05E2,1.663E3,1.472E3,2.062E3,6.95E2,7E2,5.09E2,1.182E3,2.25E2,6.3E1,3.6E1,3.3E1,1.04E2],"tree_param":{"num_deleted":"0","num_feature":"20","num_nodes":"47","size_leaf_vector":"1"}},{"base_weights":[-1.1717594E-1,-2.1922146E1,1.01870764E3,-3.4319492E1,2.748528E2,2.8406534E1,1.115623E3,-4.921154E1,2.6785752E-1,2.1482347E2,4.2182452E2,8.559191E1,5.3354836E1,-6.915229E1,-4.08521E1,-5.6692243E0,5.013861E1,1.6147308E2,1.26833105E1,2.193534E1,1.6839819E1,-8.820044E1,-6.473266E1,-4.726061E1,-3.531214E1,-1.6435316E1,5.669953E0,3.4088257E1,7.92378E1,1.7216554E2,1.1439011E2,-5.006092E0,-4.09076E0,-3.4480934E0,-3.026853E0,-2.582309E0,-2.2707167E0,-1.9491129E0,-1.6136332E0,-1.035016E0,-5.715483E-1,1.0510057E-1,6.379408E-1,1.5434335E0,2.0898314E0,4.724784E0,3.3677042E0,8.737812E0,4.755574E0,4.4688683E0,7.0111947E0],"categories":[],"categories_nodes":[],"categories_segments":[],"categories_sizes":[],"default_left":[0,0,0,0,0,0,0,0,0,0,0,0,0,0,0,0,0,0,0,0,0,0,0,0,0,0,0,0,0,0,0,0,0,0,0,0,0,0,0,0,0,0,0,0,0,0,0,0,0,0,0],"id":7,"left_children":[1,3,5,7,9,-1,11,13,15,17,19,-1,-1,21,23,25,27,29,-1,-1,-1,31,33,35,37,39,41,43,45,47,49,-1,-1,-1,-1,-1,-1,-1,-1,-1,-1,-1,-1,-1,-1,-1,-1,-1,-1,-1,-1],"loss_changes":[2.6929574E8,4.3674436E7,1.045784E7,5.868281E6,4.108948E6,0E0,4.191184E6,1.32472E6,1.01586175E6,6.63612E5,4.8906E4,0E0,0E0,1.92212E5,1.97645E5,3.7438625E5,1.6777306E5,5.380725E4,0E0,0E0,0E0,2.530175E4,2.9752E4,1.87065E4,3.2375E4,3.333678E4,3.7760402E4,4.591625E3,1.7025688E4,6.73475E3,6.852375E3,0E0,0E0,0E0,0E0,0E0,0E0,0E0,0E0,0E0,0E0,0E0,0E0,0E0,0E0,0E0,0E0,0E0,0E0,0E0,0E0],"parents":[2147483647,0,0,1,1,2,2,3,3,4,4,6,6,7,7,8,8,9,9,10,10,13,13,14,14,15,15,16,16,17,17,21,21,22,22,23,23,24,24,25,25,26,26,27,27,28,28,29,29,30,30],"right_children":[2,4,6,8,10,-1,12,14,16,18,20,-1,-1,22,24,26,28,30,-1,-1,-1,32,34,36,38,40,42,44,46,48,50,-1,-1,-1,-1,-1,-1,-1,-1,-1,-1,-1,-1,-1,-1,-1,-1,-1,-1,-1,-1],"split_conditions":[8.416667E2,1.8571428E2,1.3513514E1,1.2307693E1,4.8235294E2,2.8406534E1,1.9E1,-2.8571428E1,7.692308E1,3.473684E2,2.2E1,8.559191E1,5.3354836E1,-5.6626507E1,-8.77193E0,4.054054E1,1.125E2,-7.0833335E0,1.26833105E1,2.193534E1,1.6839819E1,-7.313433E1,-4.1346153E1,-1.9248827E1,-1.5267175E0,2.5531916E1,5.6074768E1,1E2,4.65444E5,1.3420345E6,1.2367836E4,-5.006092E0,-4.09076E0,-3.4480934E0,-3.026853E0,-2.582309E0,-2.2707167E0,-1.9491129E0,-1.6136332E0,-1.035016E0,-5.715483E-1,1.0510057E-1,6.379408E-1,1.5434335E0,2.0898314E0,4.724784E0,3.3677042E0,8.737812E0,4.755574E0,4.4688683E0,7.0111947E0],"split_indices":[11,11,7,11,11,0,5,11,11,11,5,0,0,11,11,11,11,7,0,0,0,11,11,11,11,11,11,11,6,6,3,0,0,0,0,0,0,0,0,0,0,0,0,0,0,0,0,0,0,0,0],"split_type":[0,0,0,0,0,0,0,0,0,0,0,0,0,0,0,0,0,0,0,0,0,0,0,0,0,0,0,0,0,0,0,0,0,0,0,0,0,0,0,0,0,0,0,0,0,0,0,0,0,0,0],"sum_hessian":[1.212E4,1.1867E4,2.53E2,1.1392E4,4.75E2,4.6E1,2.07E2,7.963E3,3.429E3,3.39E2,1.36E2,1.3E1,1.94E2,2.35E3,5.613E3,3.065E3,3.64E2,1.45E2,1.94E2,1.1E2,2.6E1,4.39E2,1.911E3,2.599E3,3.014E3,1.572E3,1.493E3,2.36E2,1.28E2,1.16E2,2.9E1,1.48E2,2.91E2,9.44E2,9.67E2,7.62E2,1.837E3,1.36E3,1.654E3,8.47E2,7.25E2,9.94E2,4.99E2,1.7E2,6.6E1,5.3E1,7.5E1,1.11E2,5E0,1.7E1,1.2E1],"tree_param":{"num_deleted":"0","num_feature":"20","num_nodes":"51","size_leaf_vector":"1"}},{"base_weights":[7.224417E-1,-2.0804617E1,9.7743774E2,-3.265012E1,2.5784076E2,2.7016428E1,1.0684457E3,-4.662142E1,5.305283E-1,2.0602252E2,1.970347E1,4.951799E1,1.429196E3,-6.558601E1,-3.868489E1,-5.2027674E0,4.813759E1,1.5547537E2,2.4109247E2,3.963599E1,7.6503365E1,-8.5071045E1,-6.171506E1,-4.4716724E1,-3.327061E1,-1.539538E1,5.457946E0,3.256248E1,7.4710045E1,8.158767E0,1.0921408E2,1.11110525E1,1.2807947E1,-4.7385445E0,-3.9413726E0,-3.4963245E0,-2.977269E0,-2.453883E0,-2.1455686E0,-1.7582043E0,-1.4083121E0,-9.745307E-1,-5.45016E-1,1.0341685E-1,6.0048836E-1,1.4650902E0,1.9873034E0,2.7397964E0,4.0767975E0,4.186278E0,6.586273E0],"categories":[],"categories_nodes":[],"categories_segments":[],"categories_sizes":[],"default_left":[0,0,0,0,0,0,0,0,0,0,0,0,0,0,0,0,0,0,0,0,0,0,0,0,0,0,0,0,0,0,0,0,0,0,0,0,0,0,0,0,0,0,0,0,0,0,0,0,0,0,0],"id":8,"left_children":[1,3,5,7,9,-1,11,13,15,17,-1,-1,19,21,23,25,27,29,31,-1,-1,33,35,37,39,41,43,45,47,-1,49,-1,-1,-1,-1,-1,-1,-1,-1,-1,-1,-1,-1,-1,-1,-1,-1,-1,-1,-1,-1],"loss_changes":[2.5447466E8,3.9095244E7,9.805392E6,5.266258E6,3.32837E6,0E0,4.641008E6,1.200666E6,9.192574E5,5.86501E5,0E0,0E0,1.09836E6,1.72527E5,1.82638E5,3.2671756E5,1.4738781E5,3.4542E4,1.647E3,0E0,0E0,1.60275E4,3.09345E4,1.88675E4,2.776325E4,2.8081125E4,3.2621086E4,4.2227344E3,1.36110625E4,0E0,2.7419688E3,0E0,0E0,0E0,0E0,0E0,0E0,0E0,0E0,0E0,0E0,0E0,0E0,0E0,0E0,0E0,0E0,0E0,0E0,0E0,0E0],"parents":[2147483647,0,0,1,1,2,2,3,3,4,4,6,6,7,7,8,8,9,9,12,12,13,13,14,14,15,15,16,16,17,17,18,18,21,21,22,22,23,23,24,24,25,25,26,26,27,27,28,28,30,30],"right_children":[2,4,6,8,10,-1,12,14,16,18,-1,-1,20,22,24,26,28,30,32,-1,-1,34,36,38,40,42,44,46,48,-1,50,-1,-1,-1,-1,-1,-1,-1,-1,-1,-1,-1,-1,-1,-1,-1,-1,-1,-1,-1,-1],"split_conditions":[8.416667E2,1.8571428E2,1.3513514E1,1.4285714E1,4.8235294E2,2.7016428E1,7.5E1,-2.8571428E1,7.692308E1,3.473684E2,1.970347E1,4.951799E1,1.55E3,-5.7446808E1,-7.6923075E0,4.054054E1,1.125E2,-7.0833335E0,4.090909E2,3.963599E1,7.6503365E1,-7.313433E1,-4.4642857E1,-1.9248827E1,2.9411764E0,2.5531916E1,5.6074768E1,1E2,1.5066667E2,8.158767E0,1.2367836E4,1.11110525E1,1.2807947E1,-4.7385445E0,-3.9413726E0,-3.4963245E0,-2.977269E0,-2.453883E0,-2.1455686E0,-1.7582043E0,-1.4083121E0,-9.745307E-1,-5.45016E-1,1.0341685E-1,6.0048836E-1,1.4650902E0,1.9873034E0,2.7397964E0,4.0767975E0,4.186278E0,6.586273E0],"split_indices":[11,11,7,11,11,0,7,11,11,11,0,0,11,11,11,11,11,7,11,0,0,11,11,11,11,11,11,11,11,0,3,0,0,0,0,0,0,0,0,0,0,0,0,0,0,0,0,0,0,0,0],"split_type":[0,0,0,0,0,0,0,0,0,0,0,0,0,0,0,0,0,0,0,0,0,0,0,0,0,0,0,0,0,0,0,0,0,0,0,0,0,0,0,0,0,0,0,0,0,0,0,0,0,0,0],"sum_hessian":[1.2101E4,1.1841E4,2.6E2,1.1359E4,4.82E2,4.6E1,2.14E2,7.993E3,3.366E3,3.51E2,1.31E2,1.79E2,3.5E1,2.356E3,5.637E3,3.005E3,3.61E2,1.46E2,2.05E2,6E0,2.9E1,3.87E2,1.969E3,2.663E3,2.974E3,1.536E3,1.469E3,2.29E2,1.32E2,1.23E2,2.3E1,9.8E1,1.07E2,1.46E2,2.41E2,4.05E2,1.564E3,7.72E2,1.891E3,2.165E3,8.09E2,8.02E2,7.34E2,9.69E2,5E2,1.61E2,6.8E1,3.6E1,9.6E1,1.3E1,1E1],"tree_param":{"num_deleted":"0","num_feature":"20","num_nodes":"51","size_leaf_vector":"1"}},{"base_weights":[-1.7057127E-1,-2.0182158E1,9.1794916E2,-3.125996E1,2.4731071E2,2.5717146E1,1.0081825E3,-4.445473E1,1.1694457E-1,1.948412E2,3.7703046E2,7.806606E1,9.635288E2,-6.3203236E1,-3.7206444E1,-5.293394E0,4.6258194E1,1.4441164E2,1.1399667E1,1.9607489E1,1.411172E1,4.829048E1,1.2969141E1,-8.323261E1,-5.9787857E1,-4.3066906E1,-3.1903631E1,-1.5772456E1,4.0974407E0,3.0465689E1,7.111639E1,1.10382576E2,7.87203E0,-4.702159E0,-3.9239414E0,-3.3560083E0,-2.8621495E0,-2.3962774E0,-2.065911E0,-1.7598928E0,-1.4568715E0,-1.0109247E0,-6.4252275E-1,-1.5321906E-1,3.7456656E-1,1.3872242E0,1.8988215E0,4.294435E0,3.0324335E0,7.056372E0,4.360859E0],"categories":[],"categories_nodes":[],"categories_segments":[],"categories_sizes":[],"default_left":[0,0,0,0,0,0,0,0,0,0,0,0,0,0,0,0,0,0,0,0,0,0,0,0,0,0,0,0,0,0,0,0,0,0,0,0,0,0,0,0,0,0,0,0,0,0,0,0,0,0,0],"id":9,"left_children":[1,3,5,7,9,-1,11,13,15,17,19,-1,21,23,25,27,29,31,-1,-1,-1,-1,-1,33,35,37,39,41,43,45,47,49,-1,-1,-1,-1,-1,-1,-1,-1,-1,-1,-1,-1,-1,-1,-1,-1,-1,-1,-1],"loss_changes":[2.2135845E8,3.494722E7,8.841056E6,4.687853E6,3.118708E6,0E0,3.657856E6,1.080862E6,8.37287E5,5.28816E5,8.1378E4,0E0,6.4272E4,1.46958E5,1.7735E5,2.9548288E5,1.3601912E5,4.291875E4,0E0,0E0,0E0,0E0,0E0,9.116E3,3.16305E4,2.1206E4,2.65215E4,1.8174875E4,3.852435E4,3.3814688E3,1.58209375E4,1.6892156E4,0E0,0E0,0E0,0E0,0E0,0E0,0E0,0E0,0E0,0E0,0E0,0E0,0E0,0E0,0E0,0E0,0E0,0E0,0E0],"parents":[2147483647,0,0,1,1,2,2,3,3,4,4,6,6,7,7,8,8,9,9,10,10,12,12,13,13,14,14,15,15,16,16,17,17,23,23,24,24,25,25,26,26,27,27,28,28,29,29,30,30,31,31],"right_children":[2,4,6,8,10,-1,12,14,16,18,20,-1,22,24,26,28,30,32,-1,-1,-1,-1,-1,34,36,38,40,42,44,46,48,50,-1,-1,-1,-1,-1,-1,-1,-1,-1,-1,-1,-1,-1,-1,-1,-1,-1,-1,-1],"split_conditions":[8.416667E2,1.8571428E2,1.3513514E1,1.2307693E1,4.8235294E2,2.5717146E1,1.9E1,-3E1,7.692308E1,3.473684E2,2.3E1,7.806606E1,2.36808E3,-6.0144928E1,-8.77193E0,3.5714287E1,1.125E2,2.742857E2,1.1399667E1,1.9607489E1,1.411172E1,4.829048E1,1.2969141E1,-8.1343285E1,-4.4642857E1,-2.1428572E1,-1.5267175E0,2.1428572E1,5.1785713E1,1E2,4.65444E5,1.13E6,7.87203E0,-4.702159E0,-3.9239414E0,-3.3560083E0,-2.8621495E0,-2.3962774E0,-2.065911E0,-1.7598928E0,-1.4568715E0,-1.0109247E0,-6.4252275E-1,-1.5321906E-1,3.7456656E-1,1.3872242E0,1.8988215E0,4.294435E0,3.0324335E0,7.056372E0,4.360859E0],"split_indices":[11,11,7,11,11,0,5,11,11,11,5,0,2,11,11,11,11,11,0,0,0,0,0,11,11,11,11,11,11,11,6,0,0,0,0,0,0,0,0,0,0,0,0,0,0,0,0,0,0,0,0],"split_type":[0,0,0,0,0,0,0,0,0,0,0,0,0,0,0,0,0,0,0,0,0,0,0,0,0,0,0,0,0,0,0,0,0,0,0,0,0,0,0,0,0,0,0,0,0,0,0,0,0,0,0],"sum_hessian":[1.2046E4,1.179E4,2.56E2,1.1322E4,4.68E2,4.8E1,2.08E2,7.97E3,3.352E3,3.35E2,1.33E2,1.3E1,1.95E2,2.22E3,5.75E3,3.001E3,3.51E2,1.35E2,2E2,1.12E2,2.1E1,1.94E2,1E0,3.2E2,1.9E3,2.728E3,3.022E3,1.418E3,1.583E3,2.16E2,1.35E2,4E1,9.5E1,9.2E1,2.28E2,4.83E2,1.417E3,7.15E2,2.013E3,1.374E3,1.648E3,5.6E2,8.58E2,5.09E2,1.074E3,1.62E2,5.4E1,5.3E1,8.2E1,1.5E1,2.5E1],"tree_param":{"num_deleted":"0","num_feature":"20","num_nodes":"51","size_leaf_vector":"1"}},{"base_weights":[1.1121941E0,-1.8924427E1,8.7158795E2,-2.9657743E1,2.294605E2,2.4467722E1,9.5412225E2,-4.2196182E1,-7.447779E-3,1.8230156E2,3.5855695E2,4.466278E1,1.2420964E3,-6.0086903E1,-3.5383717E1,-5.0376644E0,4.2212482E1,1.3743304E2,2.1746065E2,1.863341E1,1.3649276E1,3.53766E1,6.847801E1,-7.717811E1,-5.6431824E1,-4.0897854E1,-3.0313704E1,-1.4088533E1,4.6887636E0,2.8308481E1,6.706057E1,1.0396666E2,7.4615464E0,9.981834E0,1.1606753E1,-4.2981963E0,-3.5582478E0,-3.166392E0,-2.7203517E0,-2.2390528E0,-1.9494933E0,-1.6728843E0,-1.3825412E0,-8.911299E-1,-4.8792028E-1,8.102958E-2,5.4333246E-1,1.2815002E0,1.7904828E0,2.5181077E0,3.6812184E0,4.1256914E0,6.5780907E0],"categories":[],"categories_nodes":[],"categories_segments":[],"categories_sizes":[],"default_left":[0,0,0,0,0,0,0,0,0,0,0,0,0,0,0,0,0,0,0,0,0,0,0,0,0,0,0,0,0,0,0,0,0,0,0,0,0,0,0,0,0,0,0,0,0,0,0,0,0,0,0,0,0],"id":10,"left_children":[1,3,5,7,9,-1,11,13,15,17,19,-1,21,23,25,27,29,31,33,-1,-1,-1,-1,35,37,39,41,43,45,47,49,51,-1,-1,-1,-1,-1,-1,-1,-1,-1,-1,-1,-1,-1,-1,-1,-1,-1,-1,-1,-1,-1],"loss_changes":[2.0929574E8,3.1278916E7,8.050912E6,4.180536E6,2.893428E6,0E0,2.764176E6,9.61089E5,7.1018356E5,5.34872E5,5.4038E4,0E0,1.483944E6,1.317045E5,1.588415E5,2.6310753E5,1.2109531E5,4.7658E4,5.707E3,0E0,0E0,0E0,0E0,1.40105E4,2.166E4,1.8555E4,2.408225E4,2.4855656E4,2.729628E4,3.7032969E3,1.02119375E4,1.57840625E4,0E0,0E0,0E0,0E0,0E0,0E0,0E0,0E0,0E0,0E0,0E0,0E0,0E0,0E0,0E0,0E0,0E0,0E0,0E0,0E0,0E0],"parents":[2147483647,0,0,1,1,2,2,3,3,4,4,6,6,7,7,8,8,9,9,10,10,12,12,13,13,14,14,15,15,16,16,17,17,18,18,23,23,24,24,25,25,26,26,27,27,28,28,29,29,30,30,31,31],"right_children":[2,4,6,8,10,-1,12,14,16,18,20,-1,22,24,26,28,30,32,34,-1,-1,-1,-1,36,38,40,42,44,46,48,50,52,-1,-1,-1,-1,-1,-1,-1,-1,-1,-1,-1,-1,-1,-1,-1,-1,-1,-1,-1,-1,-1],"split_conditions":[8.416667E2,1.8571428E2,1.3513514E1,1.2307693E1,4.8235294E2,2.4467722E1,7.5E1,-3E1,7.090909E1,3.473684E2,2.3E1,4.466278E1,1.55E3,-5.7446808E1,-8.77193E0,4.054054E1,1.125E2,2.742857E2,4.090909E2,1.863341E1,1.3649276E1,3.53766E1,6.847801E1,-7.313433E1,-4.4642857E1,-1.9248827E1,-1.5267175E0,2.5531916E1,5.6074768E1,1E2,1.5066667E2,3.4E1,7.4615464E0,9.981834E0,1.1606753E1,-4.2981963E0,-3.5582478E0,-3.166392E0,-2.7203517E0,-2.2390528E0,-1.9494933E0,-1.6728843E0,-1.3825412E0,-8.911299E-1,-4.8792028E-1,8.102958E-2,5.4333246E-1,1.2815002E0,1.7904828E0,2.5181077E0,3.6812184E0,4.1256914E0,6.5780907E0],"split_indices":[11,11,7,11,11,0,7,11,11,11,5,0,11,11,11,11,11,11,11,0,0,0,0,11,11,11,11,11,11,11,11,8,0,0,0,0,0,0,0,0,0,0,0,0,0,0,0,0,0,0,0,0,0],"split_type":[0,0,0,0,0,0,0,0,0,0,0,0,0,0,0,0,0,0,0,0,0,0,0,0,0,0,0,0,0,0,0,0,0,0,0,0,0,0,0,0,0,0,0,0,0,0,0,0,0,0,0,0,0],"sum_hessian":[1.1998E4,1.1729E4,2.69E2,1.1244E4,4.85E2,4.9E1,2.2E2,7.902E3,3.342E3,3.57E2,1.28E2,1.85E2,3.5E1,2.177E3,5.725E3,2.987E3,3.55E2,1.59E2,1.98E2,1.07E2,2.1E1,8E0,2.7E1,3.8E2,1.797E3,2.739E3,2.986E3,1.547E3,1.44E3,2.29E2,1.26E2,4.4E1,1.15E2,9.6E1,1.02E2,1.49E2,2.31E2,4.01E2,1.396E3,8.95E2,1.844E3,1.364E3,1.622E3,8.29E2,7.18E2,9.63E2,4.77E2,1.72E2,5.7E1,3.8E1,8.8E1,2.7E1,1.7E1],"tree_param":{"num_deleted":"0","num_feature":"20","num_nodes":"53","size_leaf_vector":"1"}},{"base_weights":[5.344444E-1,-1.775572E1,8.3365643E2,-2.8073633E1,2.2148232E2,2.3259113E1,9.1566394E2,-3.98688E1,7.223537E-1,1.7327362E2,3.3821085E2,8.6459467E2,7.222959E1,-5.588094E1,-3.284371E1,-4.1253886E0,4.150818E1,1.310532E2,2.0645534E2,1.5655092E1,1.8819084E1,8.66637E2,1.1760498E1,-7.061612E1,-5.195213E1,-3.7118813E1,-2.7140562E1,-1.2731655E1,4.948485E0,2.7766653E1,6.462157E1,1.3915286E2,8.9345726E1,9.48569E0,1.1094554E1,5.580127E1,4.234554E1,-4.072271E0,-3.2981842E0,-2.752439E0,-2.3765156E0,-1.9769372E0,-1.716113E0,-1.4461765E0,-1.1755507E0,-7.7392507E-1,-3.636292E-1,1.04471765E-1,5.4643655E-1,1.2627013E0,1.7097559E0,3.9061973E0,2.7088745E0,7.091916E0,4.0570636E0,3.6707284E0,5.5340176E0],"categories":[],"categories_nodes":[],"categories_segments":[],"categories_sizes":[],"default_left":[0,0,0,0,0,0,0,0,0,0,0,0,0,0,0,0,0,0,0,0,0,0,0,0,0,0,0,0,0,0,0,0,0,0,0,0,0,0,0,0,0,0,0,0,0,0,0,0,0,0,0,0,0,0,0,0,0],"id":11,"left_children":[1,3,5,7,9,-1,11,13,15,17,19,21,-1,23,25,27,29,31,33,-1,-1,35,-1,37,39,41,43,45,47,49,51,53,55,-1,-1,-1,-1,-1,-1,-1,-1,-1,-1,-1,-1,-1,-1,-1,-1,-1,-1,-1,-1,-1,-1,-1,-1],"loss_changes":[1.830072E8,2.9015292E7,7.370208E6,3.826906E6,2.676278E6,0E0,4.423536E6,8.9727E5,6.477015E5,4.5767E5,1.7294E4,4.552E4,0E0,1.37356E5,1.345045E5,2.2871689E5,1.08735125E5,3.992875E4,7.5205E3,0E0,0E0,4.288E3,0E0,2.03225E4,2.3769E4,2.0123E4,1.475425E4,2.2425281E4,2.435866E4,2.6899531E3,1.3959E4,8.43175E3,1.3912344E3,0E0,0E0,0E0,0E0,0E0,0E0,0E0,0E0,0E0,0E0,0E0,0E0,0E0,0E0,0E0,0E0,0E0,0E0,0E0,0E0,0E0,0E0,0E0,0E0],"parents":[2147483647,0,0,1,1,2,2,3,3,4,4,6,6,7,7,8,8,9,9,10,10,11,11,13,13,14,14,15,15,16,16,17,17,18,18,21,21,23,23,24,24,25,25,26,26,27,27,28,28,29,29,30,30,31,31,32,32],"right_children":[2,4,6,8,10,-1,12,14,16,18,20,22,-1,24,26,28,30,32,34,-1,-1,36,-1,38,40,42,44,46,48,50,52,54,56,-1,-1,-1,-1,-1,-1,-1,-1,-1,-1,-1,-1,-1,-1,-1,-1,-1,-1,-1,-1,-1,-1,-1,-1],"split_conditions":[8.416667E2,1.8571428E2,1.3513514E1,1.6666666E1,4.8235294E2,2.3259113E1,1.072E3,-2.6666666E1,7.692308E1,3.473684E2,4.797763E5,2.2E2,7.222959E1,-5.2941177E1,-5.4945054E0,4.108527E1,1.125E2,-7.0833335E0,4.090909E2,1.5655092E1,1.8819084E1,3.15E1,1.1760498E1,-7.313433E1,-3.9130436E1,-1.5E1,3.125E0,2.8571428E1,5.7692307E1,1E2,4.65444E5,1.3420345E6,1.2367836E4,9.48569E0,1.1094554E1,5.580127E1,4.234554E1,-4.072271E0,-3.2981842E0,-2.752439E0,-2.3765156E0,-1.9769372E0,-1.716113E0,-1.4461765E0,-1.1755507E0,-7.7392507E-1,-3.636292E-1,1.04471765E-1,5.4643655E-1,1.2627013E0,1.7097559E0,3.9061973E0,2.7088745E0,7.091916E0,4.0570636E0,3.6707284E0,5.5340176E0],"split_indices":[11,11,7,11,11,0,8,11,11,11,6,1,0,11,11,11,11,7,11,0,0,10,0,11,11,11,11,11,11,11,6,6,3,0,0,0,0,0,0,0,0,0,0,0,0,0,0,0,0,0,0,0,0,0,0,0,0],"split_type":[0,0,0,0,0,0,0,0,0,0,0,0,0,0,0,0,0,0,0,0,0,0,0,0,0,0,0,0,0,0,0,0,0,0,0,0,0,0,0,0,0,0,0,0,0,0,0,0,0,0,0,0,0,0,0,0,0],"sum_hessian":[1.2008E4,1.1751E4,2.57E2,1.1266E4,4.85E2,4.8E1,2.09E2,7.992E3,3.274E3,3.45E2,1.4E2,1.93E2,1.6E1,2.435E3,5.557E3,2.927E3,3.47E2,1.54E2,1.91E2,9E1,5E1,1.92E2,1E0,5.09E2,1.926E3,3.173E3,2.384E3,1.502E3,1.425E3,2.19E2,1.28E2,1.27E2,2.7E1,9.8E1,9.3E1,1E1,1.82E2,1.48E2,3.61E2,1.126E3,8E2,1.694E3,1.479E3,1.594E3,7.9E2,9.98E2,5.04E2,9.65E2,4.6E2,1.61E2,5.8E1,5.3E1,7.5E1,1.2E2,7E0,1.8E1,9E0],"tree_param":{"num_deleted":"0","num_feature":"20","num_nodes":"57","size_leaf_vector":"1"}},{"base_weights":[3.1151864E-1,-1.7020283E1,7.9061365E2,-2.6644192E1,2.097072E2,2.2154669E1,8.757729E2,-3.802342E1,1.0924284E-1,1.6715462E2,3.2094733E2,8.0427167E2,1.1825548E3,-5.4381275E1,-3.180918E1,-4.5396876E0,3.9514156E1,1.24956955E2,1.9674239E2,1.6870192E1,1.2822345E1,4.0315235E1,1.1466486E1,3.2536766E1,6.3224804E1,-7.155552E1,-5.139932E1,-3.6854187E1,-2.7350029E1,-1.3544575E1,3.537087E0,2.6649055E1,6.150549E1,9.542949E1,6.7187724E0,9.001716E0,1.0496352E1,-4.050814E0,-3.3759391E0,-2.9031284E0,-2.45961E0,-2.0650666E0,-1.7726592E0,-1.5092812E0,-1.247394E0,-8.700035E-1,-5.440545E-1,-1.4000724E-1,3.288075E-1,1.1983299E0,1.6284409E0,3.711177E0,2.6097286E0,5.698138E0,3.4961376E0],"categories":[],"categories_nodes":[],"categories_segments":[],"categories_sizes":[],"default_left":[0,0,0,0,0,0,0,0,0,0,0,0,0,0,0,0,0,0,0,0,0,0,0,0,0,0,0,0,0,0,0,0,0,0,0,0,0,0,0,0,0,0,0,0,0,0,0,0,0,0,0,0,0,0,0],"id":12,"left_children":[1,3,5,7,9,-1,11,13,15,17,19,21,23,25,27,29,31,33,35,-1,-1,-1,-1,-1,-1,37,39,41,43,45,47,49,51,53,-1,-1,-1,-1,-1,-1,-1,-1,-1,-1,-1,-1,-1,-1,-1,-1,-1,-1,-1,-1,-1],"loss_changes":[1.6531318E8,2.5775064E7,7.276944E6,3.449234E6,2.223192E6,0E0,3.589504E6,8.063E5,6.197304E5,4.12402E5,5.3586E4,1.496E4,7.89536E5,1.083245E5,1.28639E5,2.2013022E5,9.9363625E4,2.8058E4,7.145E3,0E0,0E0,0E0,0E0,0E0,0E0,6.788875E3,2.46005E4,1.536425E4,2.01105E4,1.45056875E4,3.0756168E4,2.8240781E3,1.16385E4,1.0467594E4,0E0,0E0,0E0,0E0,0E0,0E0,0E0,0E0,0E0,0E0,0E0,0E0,0E0,0E0,0E0,0E0,0E0,0E0,0E0,0E0,0E0],"parents":[2147483647,0,0,1,1,2,2,3,3,4,4,6,6,7,7,8,8,9,9,10,10,11,11,12,12,13,13,14,14,15,15,16,16,17,17,18,18,25,25,26,26,27,27,28,28,29,29,30,30,31,31,32,32,33,33],"right_children":[2,4,6,8,10,-1,12,14,16,18,20,22,24,26,28,30,32,34,36,-1,-1,-1,-1,-1,-1,38,40,42,44,46,48,50,52,54,-1,-1,-1,-1,-1,-1,-1,-1,-1,-1,-1,-1,-1,-1,-1,-1,-1,-1,-1,-1,-1],"split_conditions":[8.416667E2,1.8571428E2,1.3513514E1,1.2307693E1,4.8235294E2,2.2154669E1,7.401816E2,-3E1,7.692308E1,3.473684E2,2E1,2.14E2,1.55E3,-6.0144928E1,-8.77193E0,3.5714287E1,1.125E2,2.742857E2,4.090909E2,1.6870192E1,1.2822345E1,4.0315235E1,1.1466486E1,3.2536766E1,6.3224804E1,-8.1343285E1,-4.6666668E1,-2.2222221E1,-1.5267175E0,2.1428572E1,5.1785713E1,1E2,4.65444E5,-1.0126582E1,6.7187724E0,9.001716E0,1.0496352E1,-4.050814E0,-3.3759391E0,-2.9031284E0,-2.45961E0,-2.0650666E0,-1.7726592E0,-1.5092812E0,-1.247394E0,-8.700035E-1,-5.440545E-1,-1.4000724E-1,3.288075E-1,1.1983299E0,1.6284409E0,3.711177E0,2.6097286E0,5.698138E0,3.4961376E0],"split_indices":[11,11,7,11,11,0,13,11,11,11,5,1,11,11,11,11,11,11,11,0,0,0,0,0,0,11,11,11,11,11,11,11,6,7,0,0,0,0,0,0,0,0,0,0,0,0,0,0,0,0,0,0,0,0,0],"split_type":[0,0,0,0,0,0,0,0,0,0,0,0,0,0,0,0,0,0,0,0,0,0,0,0,0,0,0,0,0,0,0,0,0,0,0,0,0,0,0,0,0,0,0,0,0,0,0,0,0,0,0,0,0,0,0],"sum_hessian":[1.2067E4,1.1809E4,2.58E2,1.1329E4,4.8E2,5.2E1,2.06E2,7.948E3,3.381E3,3.49E2,1.31E2,1.7E2,3.6E1,2.186E3,5.762E3,3.025E3,3.56E2,1.46E2,2.03E2,1.01E2,3E1,1.69E2,1E0,6E0,3E1,3.2E2,1.866E3,2.7E3,3.062E3,1.43E3,1.595E3,2.26E2,1.3E2,3.8E1,1.08E2,9.6E1,1.07E2,9E1,2.3E2,4.58E2,1.408E3,6.4E2,2.06E3,1.399E3,1.663E3,5.82E2,8.48E2,5.17E2,1.078E3,1.59E2,6.7E1,5.2E1,7.8E1,2E1,1.8E1],"tree_param":{"num_deleted":"0","num_feature":"20","num_nodes":"55","size_leaf_vector":"1"}},{"base_weights":[-1.029999E-3,-1.6327997E1,7.5319946E2,-2.5397566E1,1.9961119E2,2.1025633E1,8.256555E2,-3.618215E1,9.2671745E-2,1.577349E2,3.081829E2,6.530647E1,7.8467206E2,-5.200494E1,-3.0416843E1,-4.6218767E0,3.355672E1,1.1786773E2,1.8679256E2,1.6131414E1,1.148678E1,5.113171E1,7.63595E2,-6.772894E1,-4.9039253E1,-3.5231163E1,-2.5922338E1,-1.2836554E1,2.8860655E0,2.2756512E1,5.812447E1,9.0378975E1,6.40831E0,8.5912075E0,9.980757E0,3.82662E1,1.1179824E1,-3.8567498E0,-3.1933136E0,-2.7542226E0,-2.3544276E0,-1.9723753E0,-1.6815814E0,-1.3704476E0,-1.0862945E0,-7.8373986E-1,-4.8466825E-1,-1.3169537E-1,2.753442E-1,8.675233E-1,1.3377688E0,3.5217037E0,2.4876826E0,5.765974E0,3.6751087E0],"categories":[],"categories_nodes":[],"categories_segments":[],"categories_sizes":[],"default_left":[0,0,0,0,0,0,0,0,0,0,0,0,0,0,0,0,0,0,0,0,0,0,0,0,0,0,0,0,0,0,0,0,0,0,0,0,0,0,0,0,0,0,0,0,0,0,0,0,0,0,0,0,0,0,0],"id":13,"left_children":[1,3,5,7,9,-1,11,13,15,17,19,-1,21,23,25,27,29,31,33,-1,-1,-1,35,37,39,41,43,45,47,49,51,53,-1,-1,-1,-1,-1,-1,-1,-1,-1,-1,-1,-1,-1,-1,-1,-1,-1,-1,-1,-1,-1,-1,-1],"loss_changes":[1.489594E8,2.3224748E7,5.847824E6,3.12811E6,2.124654E6,0E0,3.110336E6,7.27839E5,5.340416E5,3.79963E5,7.5465E4,0E0,2.02152E5,9.6192E4,1.2595E5,1.830277E5,1.09588125E5,3.0597375E4,3.8965E3,0E0,0E0,0E0,6.72E2,7.28125E3,1.86205E4,1.774625E4,1.8344625E4,1.2489297E4,2.2452582E4,5.84825E3,9.5819375E3,1.00440625E4,0E0,0E0,0E0,0E0,0E0,0E0,0E0,0E0,0E0,0E0,0E0,0E0,0E0,0E0,0E0,0E0,0E0,0E0,0E0,0E0,0E0,0E0,0E0],"parents":[2147483647,0,0,1,1,2,2,3,3,4,4,6,6,7,7,8,8,9,9,10,10,12,12,13,13,14,14,15,15,16,16,17,17,18,18,22,22,23,23,24,24,25,25,26,26,27,27,28,28,29,29,30,30,31,31],"right_children":[2,4,6,8,10,-1,12,14,16,18,20,-1,22,24,26,28,30,32,34,-1,-1,-1,36,38,40,42,44,46,48,50,52,54,-1,-1,-1,-1,-1,-1,-1,-1,-1,-1,-1,-1,-1,-1,-1,-1,-1,-1,-1,-1,-1,-1,-1],"split_conditions":[8.416667E2,1.8571428E2,1.3513514E1,1.2307693E1,4.8235294E2,2.1025633E1,1.9E1,-3.1538462E1,6.7741936E1,3.473684E2,2.3E1,6.530647E1,3.15E1,-6.0144928E1,-8.77193E0,3.5714287E1,1.125E2,2.742857E2,4.090909E2,1.6131414E1,1.148678E1,5.113171E1,2.158E6,-8.1343285E1,-4.6666668E1,-2.2222221E1,2.9411764E0,2.4675325E1,5.1785713E1,8E1,4.65444E5,9.66E2,6.40831E0,8.5912075E0,9.980757E0,3.82662E1,1.1179824E1,-3.8567498E0,-3.1933136E0,-2.7542226E0,-2.3544276E0,-1.9723753E0,-1.6815814E0,-1.3704476E0,-1.0862945E0,-7.8373986E-1,-4.8466825E-1,-1.3169537E-1,2.753442E-1,8.675233E-1,1.3377688E0,3.5217037E0,2.4876826E0,5.765974E0,3.6751087E0],"split_indices":[11,11,7,11,11,0,5,11,11,11,5,0,10,11,11,11,11,11,11,0,0,0,0,11,11,11,11,11,11,11,6,4,0,0,0,0,0,0,0,0,0,0,0,0,0,0,0,0,0,0,0,0,0,0,0],"split_type":[0,0,0,0,0,0,0,0,0,0,0,0,0,0,0,0,0,0,0,0,0,0,0,0,0,0,0,0,0,0,0,0,0,0,0,0,0,0,0,0,0,0,0,0,0,0,0,0,0,0,0,0,0,0,0],"sum_hessian":[1.2111E4,1.1855E4,2.56E2,1.1378E4,4.77E2,4.7E1,2.09E2,7.995E3,3.383E3,3.46E2,1.31E2,1.4E1,1.95E2,2.133E3,5.862E3,2.966E3,4.17E2,1.48E2,1.98E2,1.08E2,2.3E1,1.2E1,1.83E2,3.35E2,1.798E3,2.827E3,3.035E3,1.416E3,1.55E3,2.91E2,1.26E2,4.3E1,1.05E2,9.8E1,1E2,1.82E2,1E0,9.2E1,2.43E2,4.32E2,1.366E3,7.71E2,2.056E3,2.237E3,7.98E2,7.42E2,6.74E2,4.99E2,1.051E3,1.26E2,1.65E2,4.8E1,7.8E1,1.5E1,2.8E1],"tree_param":{"num_deleted":"0","num_feature":"20","num_nodes":"55","size_leaf_vector":"1"}},{"base_weights":[1.5359608E0,-1.5084176E1,7.253955E2,-2.404304E1,1.8919386E2,1.9946783E1,7.8352814E2,-3.4199055E1,5.809748E-1,1.4955818E2,2.9093314E2,3.6358143E1,1.0563655E3,-4.772964E1,-2.81003E1,-4.1633844E0,3.2120834E1,1.12551575E2,1.7808798E2,1.3539897E1,1.626583E1,3.0308767E1,5.70602E1,-5.7973835E1,-4.3552906E1,-3.1754332E1,-2.3246685E1,-1.0916822E1,3.5658574E0,2.193055E1,5.5886147E1,1.2057451E2,7.826478E1,8.162514E0,9.54444E0,-3.3578415E0,-2.6721337E0,-2.295644E0,-1.9965603E0,-1.6930102E0,-1.4691851E0,-1.2383717E0,-9.943082E-1,-6.649138E-1,-3.139497E-1,7.438109E-2,4.1547772E-1,8.239304E-1,1.272267E0,3.3563564E0,2.3711526E0,6.1491017E0,3.469488E0,3.1688874E0,4.8146343E0],"categories":[],"categories_nodes":[],"categories_segments":[],"categories_sizes":[],"default_left":[0,0,0,0,0,0,0,0,0,0,0,0,0,0,0,0,0,0,0,0,0,0,0,0,0,0,0,0,0,0,0,0,0,0,0,0,0,0,0,0,0,0,0,0,0,0,0,0,0,0,0,0,0,0,0],"id":14,"left_children":[1,3,5,7,9,-1,11,13,15,17,19,-1,21,23,25,27,29,31,33,-1,-1,-1,-1,35,37,39,41,43,45,47,49,51,53,-1,-1,-1,-1,-1,-1,-1,-1,-1,-1,-1,-1,-1,-1,-1,-1,-1,-1,-1,-1,-1,-1],"loss_changes":[1.4525693E8,2.1605208E7,4.830448E6,2.827946E6,1.956612E6,0E0,2.753536E6,6.59311E5,4.9438284E5,3.589855E5,7.444E3,0E0,7.21388E5,1.038445E5,9.7178E4,1.4995434E5,1.0339406E5,3.4301125E4,7.0145E3,0E0,0E0,0E0,0E0,2.624525E4,1.3295E4,1.471575E4,1.1644875E4,1.6848125E4,1.3198055E4,5.4060938E3,9.088875E3,7.116375E3,2.7538125E3,0E0,0E0,0E0,0E0,0E0,0E0,0E0,0E0,0E0,0E0,0E0,0E0,0E0,0E0,0E0,0E0,0E0,0E0,0E0,0E0,0E0,0E0],"parents":[2147483647,0,0,1,1,2,2,3,3,4,4,6,6,7,7,8,8,9,9,10,10,12,12,13,13,14,14,15,15,16,16,17,17,18,18,23,23,24,24,25,25,26,26,27,27,28,28,29,29,30,30,31,31,32,32],"right_children":[2,4,6,8,10,-1,12,14,16,18,20,-1,22,24,26,28,30,32,34,-1,-1,-1,-1,36,38,40,42,44,46,48,50,52,54,-1,-1,-1,-1,-1,-1,-1,-1,-1,-1,-1,-1,-1,-1,-1,-1,-1,-1,-1,-1,-1,-1],"split_conditions":[8.416667E2,1.8571428E2,1.3513514E1,1.6666666E1,4.8235294E2,1.9946783E1,7.401816E2,-2.5581396E1,6.7741936E1,3.473684E2,4.797763E5,3.6358143E1,1.55E3,-4.857143E1,-5.4945054E0,4.108527E1,1.125E2,-7.0833335E0,4.090909E2,1.3539897E1,1.626583E1,3.0308767E1,5.70602E1,-6.610169E1,-3.6607143E1,-1.5E1,4.2735043E0,2.8571428E1,5.6074768E1,8E1,4.65444E5,1.3420345E6,1.2367836E4,8.162514E0,9.54444E0,-3.3578415E0,-2.6721337E0,-2.295644E0,-1.9965603E0,-1.6930102E0,-1.4691851E0,-1.2383717E0,-9.943082E-1,-6.649138E-1,-3.139497E-1,7.438109E-2,4.1547772E-1,8.239304E-1,1.272267E0,3.3563564E0,2.3711526E0,6.1491017E0,3.469488E0,3.1688874E0,4.8146343E0],"split_indices":[11,11,7,11,11,0,13,11,11,11,6,0,11,11,11,11,11,7,11,0,0,0,0,11,11,11,11,11,11,11,6,6,3,0,0,0,0,0,0,0,0,0,0,0,0,0,0,0,0,0,0,0,0,0,0],"split_type":[0,0,0,0,0,0,0,0,0,0,0,0,0,0,0,0,0,0,0,0,0,0,0,0,0,0,0,0,0,0,0,0,0,0,0,0,0,0,0,0,0,0,0,0,0,0,0,0,0,0,0,0,0,0,0],"sum_hessian":[1.2072E4,1.1802E4,2.7E2,1.1307E4,4.95E2,4.2E1,2.28E2,8.005E3,3.302E3,3.58E2,1.37E2,1.92E2,3.6E1,2.485E3,5.52E3,2.871E3,4.31E2,1.58E2,2E2,9.2E1,4.5E1,7E0,2.9E1,7.16E2,1.769E3,3.146E3,2.374E3,1.532E3,1.339E3,3.03E2,1.28E2,1.26E2,3.2E1,9.9E1,1.01E2,2.32E2,4.84E2,1.064E3,7.05E2,1.659E3,1.487E3,1.63E3,7.44E2,1.011E3,5.21E2,9.32E2,4.07E2,1.21E2,1.82E2,5.2E1,7.6E1,1.19E2,7E0,2E1,1.2E1],"tree_param":{"num_deleted":"0","num_feature":"20","num_nodes":"55","size_leaf_vector":"1"}},{"base_weights":[-3.560749E-1,-1.287626E1,2.8483762E2,3.0611124E1,-2.3815174E1,3.4609043E1,6.73837E1,1.9995615E1,2.3370119E2,-2.516617E1,4.409962E1,-1.7754156E1,9.89331E2,-7.3428214E-1,6.2694466E1,1.0499169E0,1.4332433E1,-2.7351559E1,1.7434832E-1,-2.4239231E1,1.1120288E2,-2.6286865E1,2.8301262E1,5.2969116E1,2.779563E1,-7.65197E0,5.3137974E1,2.0099959E2,4.2868546E1,-1.9461027E1,-3.0371428E1,-1.7300823E1,2.1187656E0,-2.802819E-2,-2.896749E1,3.050772E0,1.4148047E2,-5.177794E1,-2.1627327E1,2.040012E1,9.991374E0,2.3221858E0,-4.51816E-1,7.043636E0,3.614732E-1,1.8992714E1,1.0831741E0,5.882977E0,8.1758326E-1,-1.069559E0,3.1045793E-2,-1.666956E0,-1.0030578E0,-6.2105435E-1,-2.0332205E0,1.7354044E-1,-3.619735E-1,-1.6173416E0,-5.1812047E-1,5.470182E0,8.28168E0,-1.3083766E0,-3.3347065E0,1.1176828E0,-1.1919318E0,-1.0047653E0,1.5943973E0],"categories":[],"categories_nodes":[],"categories_segments":[],"categories_sizes":[],"default_left":[0,0,0,0,0,0,0,0,0,0,0,0,0,0,0,0,0,0,0,0,0,0,0,0,0,0,0,0,0,0,0,0,0,0,0,0,0,0,0,0,0,0,0,0,0,0,0,0,0,0,0,0,0,0,0,0,0,0,0,0,0,0,0,0,0,0,0],"id":15,"left_children":[1,3,5,7,9,-1,11,13,15,17,19,21,23,25,27,-1,-1,29,31,33,35,37,39,-1,-1,41,43,45,47,49,51,53,55,-1,57,-1,59,61,63,65,-1,-1,-1,-1,-1,-1,-1,-1,-1,-1,-1,-1,-1,-1,-1,-1,-1,-1,-1,-1,-1,-1,-1,-1,-1,-1,-1],"loss_changes":[4.2962496E7,5.483702E6,4.4774016E7,4.990557E6,8.46152E5,0E0,2.5998622E7,1.9500156E6,1.28912E6,5.001315E5,8.2813225E5,1.2020909E5,2.61196E5,5.53451E5,1.9656425E6,0E0,0E0,1.97518E5,2.4433596E4,1.0060059E4,1.29647125E5,2.9405781E4,6.0975645E4,0E0,0E0,9.897148E4,6.79675E5,2.8785305E6,1.2494901E6,8.931894E4,1.832545E5,7.7034883E3,8.211448E3,0E0,4.380285E3,0E0,2.5265375E4,1.3153164E4,2.1831836E4,2.2505406E4,0E0,0E0,0E0,0E0,0E0,0E0,0E0,0E0,0E0,0E0,0E0,0E0,0E0,0E0,0E0,0E0,0E0,0E0,0E0,0E0,0E0,0E0,0E0,0E0,0E0,0E0,0E0],"parents":[2147483647,0,0,1,1,2,2,3,3,4,4,6,6,7,7,8,8,9,9,10,10,11,11,12,12,13,13,14,14,17,17,18,18,19,19,20,20,21,21,22,22,25,25,26,26,27,27,28,28,29,29,30,30,31,31,32,32,34,34,36,36,37,37,38,38,39,39],"right_children":[2,4,6,8,10,-1,12,14,16,18,20,22,24,26,28,-1,-1,30,32,34,36,38,40,-1,-1,42,44,46,48,50,52,54,56,-1,58,-1,60,62,64,66,-1,-1,-1,-1,-1,-1,-1,-1,-1,-1,-1,-1,-1,-1,-1,-1,-1,-1,-1,-1,-1,-1,-1,-1,-1,-1,-1],"split_conditions":[7.368421E1,4.85E5,4.35E5,1.4575E2,9.4318436E1,3.4609043E1,7.401816E2,4.6581034E5,4.739022E5,2.3633333E2,6.793333E5,4.3654507E1,1.8320328E4,1.17666664E2,4.6817203E5,1.0499169E0,1.4332433E1,5.49444E5,9E1,3.8E1,1.5600037E2,8.125E1,2.225E6,5.2969116E1,2.779563E1,2.3E1,1.3766667E2,1.9E1,-1.7857143E1,5.45E5,1.1875E1,1.9E1,1.9516667E2,-2.802819E-2,-7.2916665E0,3.050772E0,1.4E6,1.0725E6,2.0085883E-1,4.8104575E5,9.991374E0,2.3221858E0,-4.51816E-1,7.043636E0,3.614732E-1,1.8992714E1,1.0831741E0,5.882977E0,8.1758326E-1,-1.069559E0,3.1045793E-2,-1.666956E0,-1.0030578E0,-6.2105435E-1,-2.0332205E0,1.7354044E-1,-3.619735E-1,-1.6173416E0,-5.1812047E-1,5.470182E0,8.28168E0,-1.3083766E0,-3.3347065E0,1.1176828E0,-1.1919318E0,-1.0047653E0,1.5943973E0],"split_indices":[7,6,6,10,13,0,13,6,6,9,6,13,3,10,6,0,0,6,8,8,13,7,0,0,0,8,9,5,7,6,7,5,10,0,7,0,6,6,13,6,0,0,0,0,0,0,0,0,0,0,0,0,0,0,0,0,0,0,0,0,0,0,0,0,0,0,0],"split_type":[0,0,0,0,0,0,0,0,0,0,0,0,0,0,0,0,0,0,0,0,0,0,0,0,0,0,0,0,0,0,0,0,0,0,0,0,0,0,0,0,0,0,0,0,0,0,0,0,0,0,0,0,0,0,0,0,0,0,0,0,0,0,0,0,0,0,0],"sum_hessian":[1.203E4,1.1525E4,5.05E2,2.316E3,9.209E3,1.75E2,3.3E2,2.202E3,1.14E2,9.03E3,1.79E2,3.03E2,2.7E1,1.483E3,7.19E2,2.3E1,9.1E1,8.313E3,7.17E2,8.9E1,9E1,2.56E2,4.7E1,2.2E1,5E0,1.315E3,1.68E2,8.9E1,6.3E2,2.303E3,6.01E3,7.1E1,6.46E2,1.5E1,7.4E1,3.5E1,5.5E1,3.8E1,2.18E2,4.6E1,1E0,3.2E1,1.283E3,5.7E1,1.11E2,4.4E1,4.5E1,1.64E2,4.66E2,2.101E3,2.02E2,4.665E3,1.345E3,6E1,1.1E1,5.65E2,8.1E1,6.2E1,1.2E1,2.6E1,2.9E1,1.5E1,2.3E1,1E1,2.08E2,1E1,3.6E1],"tree_param":{"num_deleted":"0","num_feature":"20","num_nodes":"67","size_leaf_vector":"1"}},{"base_weights":[5.4955866E-2,-1.2214286E1,2.7275476E2,3.053697E1,-2.283459E1,3.288735E1,7.553499E1,1.9974865E1,2.2984929E2,-2.4748386E1,3.4582508E-1,-1.894775E1,7.1801874E2,-1.0151532E0,6.2957253E1,9.9565727E-1,1.3826904E1,-2.7106773E1,-1.6193472E1,-1.5736053E1,2.0927603E0,-2.8477163E1,-4.4511113E-1,5.043082E1,1.9715099E2,-7.0950084E0,5.2567833E1,2.0535912E2,4.07347E1,-3.4549343E1,-2.3015104E1,-2.0141783E1,-3.9167619E0,-5.9034663E-1,-1.8868589E0,3.402202E0,-3.452588E-1,-2.4768679E1,-3.325232E0,-2.2650476E1,1.1317217E1,1.2922442E1,2.663748E1,2.711488E0,-4.2123562E-1,6.904926E0,1.954624E-1,1.811945E1,9.6694386E-1,5.343709E0,8.501703E-1,-2.1628177E0,-1.6138242E0,5.553449E0,-1.1865052E0,-9.527232E-1,-2.2410777E0,-3.6998817E-1,3.7649257E0,1.3727449E-1,9.593873E-1,7.5070995E-1,-1.3584465E0,-1.4800912E0,-8.0839634E-2,-2.2411172E0,8.2421017E-1,-1.0663376E0,9.74159E0],"categories":[],"categories_nodes":[],"categories_segments":[],"categories_sizes":[],"default_left":[0,0,0,0,0,0,0,0,0,0,0,0,0,0,0,0,0,0,0,0,0,0,0,0,0,0,0,0,0,0,0,0,0,0,0,0,0,0,0,0,0,0,0,0,0,0,0,0,0,0,0,0,0,0,0,0,0,0,0,0,0,0,0,0,0,0,0,0,0],"id":16,"left_children":[1,3,5,7,9,-1,11,13,15,17,19,21,23,25,27,-1,-1,29,31,33,35,37,39,-1,41,43,45,47,49,51,53,55,57,-1,-1,59,-1,61,-1,63,65,67,-1,-1,-1,-1,-1,-1,-1,-1,-1,-1,-1,-1,-1,-1,-1,-1,-1,-1,-1,-1,-1,-1,-1,-1,-1,-1,-1],"loss_changes":[4.017659E7,5.2179715E6,3.9205132E7,4.8099045E6,4.08366E5,0E0,2.083495E7,1.9605466E6,1.1216845E6,1.71116E5,1.9783012E4,5.2883125E4,6.461118E6,4.7633288E5,2.2479468E6,0E0,0E0,2.02141E5,8.9110125E4,5.5191523E3,7.505236E3,2.6275562E4,2.715858E4,0E0,1.04417175E6,1.075238E5,6.195686E5,2.7972218E6,9.681803E5,4.53475E4,4.1516525E5,3.6499875E4,1.2443938E5,0E0,0E0,5.700758E3,0E0,1.7786883E4,0E0,5.215789E3,2.0463777E4,7.891811E4,0E0,0E0,0E0,0E0,0E0,0E0,0E0,0E0,0E0,0E0,0E0,0E0,0E0,0E0,0E0,0E0,0E0,0E0,0E0,0E0,0E0,0E0,0E0,0E0,0E0,0E0,0E0],"parents":[2147483647,0,0,1,1,2,2,3,3,4,4,6,6,7,7,8,8,9,9,10,10,11,11,12,12,13,13,14,14,17,17,18,18,19,19,20,20,21,21,22,22,24,24,25,25,26,26,27,27,28,28,29,29,30,30,31,31,32,32,35,35,37,37,39,39,40,40,41,41],"right_children":[2,4,6,8,10,-1,12,14,16,18,20,22,24,26,28,-1,-1,30,32,34,36,38,40,-1,42,44,46,48,50,52,54,56,58,-1,-1,60,-1,62,-1,64,66,68,-1,-1,-1,-1,-1,-1,-1,-1,-1,-1,-1,-1,-1,-1,-1,-1,-1,-1,-1,-1,-1,-1,-1,-1,-1,-1,-1],"split_conditions":[7.368421E1,4.85E5,4.35E5,1.4575E2,2.3633333E2,3.288735E1,2.13E2,4.6581034E5,4.739022E5,1.1875E1,9E1,1.22E6,1.8569206E6,1.17666664E2,4.6817203E5,9.9565727E-1,1.3826904E1,4.6333332E1,2.7E1,1.9E1,1.9516667E2,1.2034474E6,1.5E1,5.043082E1,2.753125E3,2.3E1,1.3766667E2,1.9E1,-1.7857143E1,-3.382353E1,3.4916668E1,7.2E1,1.5368876E6,-5.9034663E-1,-1.8868589E0,1.9E1,-3.452588E-1,3E0,-3.325232E0,2.5E1,8.125E1,2.07E6,2.663748E1,2.711488E0,-4.2123562E-1,6.904926E0,1.954624E-1,1.811945E1,9.6694386E-1,5.343709E0,8.501703E-1,-2.1628177E0,-1.6138242E0,5.553449E0,-1.1865052E0,-9.527232E-1,-2.2410777E0,-3.6998817E-1,3.7649257E0,1.3727449E-1,9.593873E-1,7.5070995E-1,-1.3584465E0,-1.4800912E0,-8.0839634E-2,-2.2411172E0,8.2421017E-1,-1.0663376E0,9.74159E0],"split_indices":[7,6,6,10,9,0,8,6,6,7,8,6,6,10,6,0,0,9,5,5,10,6,8,0,7,8,9,5,7,7,10,7,6,0,0,5,0,8,0,5,7,0,0,0,0,0,0,0,0,0,0,0,0,0,0,0,0,0,0,0,0,0,0,0,0,0,0,0,0],"split_type":[0,0,0,0,0,0,0,0,0,0,0,0,0,0,0,0,0,0,0,0,0,0,0,0,0,0,0,0,0,0,0,0,0,0,0,0,0,0,0,0,0,0,0,0,0,0,0,0,0,0,0,0,0,0,0,0,0,0,0,0,0,0,0,0,0,0,0,0,0],"sum_hessian":[1.2006E4,1.149E4,5.16E2,2.286E3,9.204E3,1.74E2,3.42E2,2.172E3,1.14E2,8.502E3,7.02E2,2.99E2,4.3E1,1.46E3,7.12E2,2.1E1,9.3E1,6.663E3,1.839E3,6.8E1,6.34E2,1.97E2,1.02E2,2.7E1,1.6E1,1.312E3,1.48E2,9.5E1,6.17E2,2.361E3,4.302E3,1.391E3,4.48E2,5.9E1,9E0,5.54E2,8E1,1.81E2,1.6E1,3.5E1,6.7E1,1.1E1,5E0,2.7E1,1.285E3,5.3E1,9.5E1,5.1E1,4.4E1,1.62E2,4.55E2,4.85E2,1.876E3,2.2E1,4.28E3,1.334E3,5.7E1,4.3E2,1.8E1,5.33E2,2.1E1,1E1,1.71E2,2.6E1,9E0,5E0,6.2E1,1E1,1E0],"tree_param":{"num_deleted":"0","num_feature":"20","num_nodes":"69","size_leaf_vector":"1"}},{"base_weights":[6.2970257E-1,-1.3199488E1,6.192988E2,-2.0807161E1,1.7017859E2,1.7178343E1,6.733752E2,-2.9193687E1,4.1583214E0,1.357534E2,2.5560913E2,3.1194864E1,9.227878E2,-4.2093277E1,-2.3521166E1,-7.275169E-1,3.0356834E1,9.8819405E1,1.6144221E2,1.3268498E1,1.0141373E1,2.471389E1,4.898124E1,-5.523945E1,-3.9196247E1,-2.7069246E1,-1.845743E1,-7.0017705E0,3.9752588E0,2.1317875E1,5.2094944E1,1.1015378E2,8.278336E1,7.328164E0,8.74128E0,-3.1575673E0,-2.5616624E0,-2.1276605E0,-1.8133262E0,-1.4528221E0,-1.2433953E0,-1.0209564E0,-6.986044E-1,-4.9415842E-1,-2.5252825E-1,9.571557E-2,4.453771E-1,9.761931E-1,1.3908784E0,3.1021788E0,2.2220712E0,5.6815104E0,3.2548313E0,2.9241111E0,4.53321E0],"categories":[],"categories_nodes":[],"categories_segments":[],"categories_sizes":[],"default_left":[0,0,0,0,0,0,0,0,0,0,0,0,0,0,0,0,0,0,0,0,0,0,0,0,0,0,0,0,0,0,0,0,0,0,0,0,0,0,0,0,0,0,0,0,0,0,0,0,0,0,0,0,0,0,0],"id":17,"left_children":[1,3,5,7,9,-1,11,13,15,17,19,-1,21,23,25,27,29,31,33,-1,-1,-1,-1,35,37,39,41,43,45,47,49,51,53,-1,-1,-1,-1,-1,-1,-1,-1,-1,-1,-1,-1,-1,-1,-1,-1,-1,-1,-1,-1,-1,-1],"loss_changes":[1.025225E8,1.635528E7,3.675224E6,2.356622E6,1.33873E6,0E0,2.11448E6,6.15494E5,3.623949E5,3.018915E5,1.4697E4,0E0,3.4387E5,9.5789E4,1.046765E5,7.0459625E4,8.63275E4,1.632725E4,1.3406E4,0E0,0E0,0E0,0E0,1.1408375E4,1.92185E4,1.432575E4,2.0964062E4,5.7015977E3,1.3858414E4,3.141625E3,7.1411562E3,4.9774375E3,6.5715938E3,0E0,0E0,0E0,0E0,0E0,0E0,0E0,0E0,0E0,0E0,0E0,0E0,0E0,0E0,0E0,0E0,0E0,0E0,0E0,0E0,0E0,0E0],"parents":[2147483647,0,0,1,1,2,2,3,3,4,4,6,6,7,7,8,8,9,9,10,10,12,12,13,13,14,14,15,15,16,16,17,17,18,18,23,23,24,24,25,25,26,26,27,27,28,28,29,29,30,30,31,31,32,32],"right_children":[2,4,6,8,10,-1,12,14,16,18,20,-1,22,24,26,28,30,32,34,-1,-1,-1,-1,36,38,40,42,44,46,48,50,52,54,-1,-1,-1,-1,-1,-1,-1,-1,-1,-1,-1,-1,-1,-1,-1,-1,-1,-1,-1,-1,-1,-1],"split_conditions":[8.416667E2,1.8571428E2,1.3513514E1,2.1428572E1,4.8235294E2,1.7178343E1,7.401816E2,-2.5E1,6.7741936E1,3.473684E2,2.3E1,3.1194864E1,1.55E3,-5.483871E1,-2.4390244E0,4.108527E1,1.125E2,-1.0126582E1,4.090909E2,1.3268498E1,1.0141373E1,2.471389E1,4.898124E1,-7.313433E1,-4.0298508E1,-1.25E1,1.0526316E1,4.91888E5,5.7692307E1,1E2,4.65444E5,1.3420345E6,2E1,7.328164E0,8.74128E0,-3.1575673E0,-2.5616624E0,-2.1276605E0,-1.8133262E0,-1.4528221E0,-1.2433953E0,-1.0209564E0,-6.986044E-1,-4.9415842E-1,-2.5252825E-1,9.571557E-2,4.453771E-1,9.761931E-1,1.3908784E0,3.1021788E0,2.2220712E0,5.6815104E0,3.2548313E0,2.9241111E0,4.53321E0],"split_indices":[11,11,7,11,11,0,13,11,11,11,5,0,11,11,11,11,11,7,11,0,0,0,0,11,11,11,11,6,11,11,6,6,5,0,0,0,0,0,0,0,0,0,0,0,0,0,0,0,0,0,0,0,0,0,0],"split_type":[0,0,0,0,0,0,0,0,0,0,0,0,0,0,0,0,0,0,0,0,0,0,0,0,0,0,0,0,0,0,0,0,0,0,0,0,0,0,0,0,0,0,0,0,0,0,0,0,0,0,0,0,0,0,0],"sum_hessian":[1.1981E4,1.172E4,2.61E2,1.1254E4,4.66E2,4.4E1,2.17E2,8.424E3,2.83E3,3.34E2,1.32E2,1.84E2,3.3E1,2.571E3,5.853E3,2.386E3,4.44E2,1.39E2,1.95E2,1.08E2,2.4E1,5E0,2.8E1,4.61E2,2.11E3,3.439E3,2.414E3,1.022E3,1.364E3,3.15E2,1.29E2,7.8E1,6.1E1,9.8E1,9.7E1,1.5E2,3.11E2,9.77E2,1.133E3,1.801E3,1.638E3,1.677E3,7.37E2,4.11E2,6.11E2,9.63E2,4.01E2,2.5E2,6.5E1,5.3E1,7.6E1,7.1E1,7E0,1.7E1,4.4E1],"tree_param":{"num_deleted":"0","num_feature":"20","num_nodes":"55","size_leaf_vector":"1"}},{"base_weights":[7.6234853E-1,-1.2530965E1,5.855176E2,-1.9881195E1,1.620325E2,1.6368826E1,6.3985724E2,-2.7702806E1,4.055891E0,1.2834395E2,2.4375517E2,2.9648392E1,8.816878E2,-3.988674E1,-2.2341152E1,-1.8439542E-1,3.208365E1,9.433648E1,1.5442096E2,1.2642781E1,9.723899E0,4.661663E1,2.4497839E1,-4.9275898E1,-3.635107E1,-2.6217009E1,-1.7984755E1,-5.458832E0,5.360566E0,2.1840818E1,4.9070988E1,1.0531531E2,7.6877914E1,6.9684024E0,8.278303E0,-2.8456757E0,-2.273289E0,-1.9088974E0,-1.6404413E0,-1.6089022E0,-1.2765354E0,-9.8609936E-1,-6.589958E-1,-4.211602E-1,-1.20444015E-1,1.3457215E-1,4.7877666E-1,1.0153278E0,1.3097509E0,2.955055E0,2.0856235E0,5.432468E0,3.1618361E0,2.805966E0,4.3070807E0],"categories":[],"categories_nodes":[],"categories_segments":[],"categories_sizes":[],"default_left":[0,0,0,0,0,0,0,0,0,0,0,0,0,0,0,0,0,0,0,0,0,0,0,0,0,0,0,0,0,0,0,0,0,0,0,0,0,0,0,0,0,0,0,0,0,0,0,0,0,0,0,0,0,0,0],"id":18,"left_children":[1,3,5,7,9,-1,11,13,15,17,19,-1,21,23,25,27,29,31,33,-1,-1,-1,-1,35,37,39,41,43,45,47,49,51,53,-1,-1,-1,-1,-1,-1,-1,-1,-1,-1,-1,-1,-1,-1,-1,-1,-1,-1,-1,-1,-1,-1],"loss_changes":[9.4422264E7,1.5242383E7,3.577896E6,2.1341215E6,1.290213E6,0E0,1.994512E6,5.603245E5,3.337247E5,2.887225E5,1.31585E4,0E0,2.17728E5,8.531775E4,1.00297E5,7.139084E4,6.3133656E4,2.08465E4,9.1365E3,0E0,0E0,0E0,0E0,1.8219125E4,1.110775E4,1.208975E4,2.3220438E4,1.1290234E4,1.3362043E4,1.0179453E3,7.7200938E3,5.7555625E3,7.0884688E3,0E0,0E0,0E0,0E0,0E0,0E0,0E0,0E0,0E0,0E0,0E0,0E0,0E0,0E0,0E0,0E0,0E0,0E0,0E0,0E0,0E0,0E0],"parents":[2147483647,0,0,1,1,2,2,3,3,4,4,6,6,7,7,8,8,9,9,10,10,12,12,13,13,14,14,15,15,16,16,17,17,18,18,23,23,24,24,25,25,26,26,27,27,28,28,29,29,30,30,31,31,32,32],"right_children":[2,4,6,8,10,-1,12,14,16,18,20,-1,22,24,26,28,30,32,34,-1,-1,-1,-1,36,38,40,42,44,46,48,50,52,54,-1,-1,-1,-1,-1,-1,-1,-1,-1,-1,-1,-1,-1,-1,-1,-1,-1,-1,-1,-1,-1,-1],"split_conditions":[8.416667E2,1.8571428E2,1.3513514E1,2.1428572E1,4.8235294E2,1.6368826E1,7.401816E2,-2.5E1,7.692308E1,3.473684E2,2.3E1,2.9648392E1,1.8320328E4,-4.857143E1,-4.8128343E0,4.8E1,1.125E2,-1.0126582E1,4.090909E2,1.2642781E1,9.723899E0,4.661663E1,2.4497839E1,-6.610169E1,-3.4848484E1,4.91888E5,1.0526316E1,3.2592594E1,5.7692307E1,1E2,4.65444E5,1.3420345E6,2.2E1,6.9684024E0,8.278303E0,-2.8456757E0,-2.273289E0,-1.9088974E0,-1.6404413E0,-1.6089022E0,-1.2765354E0,-9.8609936E-1,-6.589958E-1,-4.211602E-1,-1.20444015E-1,1.3457215E-1,4.7877666E-1,1.0153278E0,1.3097509E0,2.955055E0,2.0856235E0,5.432468E0,3.1618361E0,2.805966E0,4.3070807E0],"split_indices":[11,11,7,11,11,0,13,11,11,11,5,0,3,11,11,11,11,7,11,0,0,0,0,11,11,6,11,11,11,11,6,6,5,0,0,0,0,0,0,0,0,0,0,0,0,0,0,0,0,0,0,0,0,0,0],"split_type":[0,0,0,0,0,0,0,0,0,0,0,0,0,0,0,0,0,0,0,0,0,0,0,0,0,0,0,0,0,0,0,0,0,0,0,0,0,0,0,0,0,0,0,0,0,0,0,0,0,0,0,0,0,0,0],"sum_hessian":[1.2145E4,1.1876E4,2.69E2,1.1397E4,4.79E2,4.8E1,2.21E2,8.59E3,2.807E3,3.41E2,1.38E2,1.88E2,3.3E1,2.623E3,5.967E3,2.439E3,3.68E2,1.5E2,1.91E2,1.13E2,2.5E1,2.8E1,5E0,7.14E2,1.909E3,3.155E3,2.812E3,1.25E3,1.189E3,2.31E2,1.37E2,8.9E1,6.1E1,8.7E1,1.04E2,2.33E2,4.81E2,1.253E3,6.56E2,3.21E2,2.834E3,2.063E3,7.49E2,6.33E2,6.17E2,7.29E2,4.6E2,1.75E2,5.6E1,5.5E1,8.2E1,8.1E1,8E0,2.1E1,4E1],"tree_param":{"num_deleted":"0","num_feature":"20","num_nodes":"55","size_leaf_vector":"1"}},{"base_weights":[5.6084957E-2,-1.3079341E1,5.0356628E2,-1.8837685E1,1.4216716E2,3.0087445E2,6.12058E2,-2.6360594E1,3.5400817E0,1.09427574E2,1.8756435E2,2.8386935E2,2.4004011E1,2.8225723E1,4.470099E1,-3.7452244E1,-2.105718E1,-7.060961E-1,2.7762894E1,9.006855E1,6.6754694E0,7.978452E0,1.07664585E1,1.5568362E1,1.2683036E1,-4.6801613E1,-3.416271E1,-2.4258472E1,-1.662263E1,-6.3433604E0,3.6351933E0,1.9318588E1,4.6841328E1,7.8405716E1,5.173827E0,-2.7061613E0,-2.1563585E0,-1.8124541E0,-1.5438205E0,-1.4745145E0,-1.1778936E0,-9.1736966E-1,-6.3492364E-1,-4.255641E-1,-2.0248543E-1,9.01258E-2,4.0545115E-1,8.8720125E-1,1.2229487E0,1.2358044E0,2.4544218E0,4.361579E0,3.3809853E0],"categories":[],"categories_nodes":[],"categories_segments":[],"categories_sizes":[],"default_left":[0,0,0,0,0,0,0,0,0,0,0,0,0,0,0,0,0,0,0,0,0,0,0,0,0,0,0,0,0,0,0,0,0,0,0,0,0,0,0,0,0,0,0,0,0,0,0,0,0,0,0,0,0],"id":19,"left_children":[1,3,5,7,9,11,13,15,17,19,21,23,-1,-1,-1,25,27,29,31,33,-1,-1,-1,-1,-1,35,37,39,41,43,45,47,49,51,-1,-1,-1,-1,-1,-1,-1,-1,-1,-1,-1,-1,-1,-1,-1,-1,-1,-1,-1],"loss_changes":[7.9861864E7,1.0522833E7,6.566888E6,1.9104825E6,6.05201E5,1.95888E5,2.163E6,4.988005E5,2.937717E5,1.0312675E5,1.016655E5,5.7475E3,0E0,0E0,0E0,8.285475E4,8.1197E4,5.9516918E4,6.772544E4,1.3779375E4,0E0,0E0,0E0,0E0,0E0,1.6820625E4,1.283375E4,1.153325E4,1.60988125E4,5.2263945E3,1.1250926E4,1.9698828E3,5.2500312E3,1.6219062E3,0E0,0E0,0E0,0E0,0E0,0E0,0E0,0E0,0E0,0E0,0E0,0E0,0E0,0E0,0E0,0E0,0E0,0E0,0E0],"parents":[2147483647,0,0,1,1,2,2,3,3,4,4,5,5,6,6,7,7,8,8,9,9,10,10,11,11,15,15,16,16,17,17,18,18,19,19,25,25,26,26,27,27,28,28,29,29,30,30,31,31,32,32,33,33],"right_children":[2,4,6,8,10,12,14,16,18,20,22,24,-1,-1,-1,26,28,30,32,34,-1,-1,-1,-1,-1,36,38,40,42,44,46,48,50,52,-1,-1,-1,-1,-1,-1,-1,-1,-1,-1,-1,-1,-1,-1,-1,-1,-1,-1,-1],"split_conditions":[6.952381E2,1.8571428E2,1.55E3,2.1428572E1,4.111111E2,4.99E2,3.4E1,-2.3255814E1,6.7741936E1,3.473684E2,4.8235294E2,1.4066667E2,2.4004011E1,2.8225723E1,4.470099E1,-4.857143E1,-2.4390244E0,4.108527E1,1.125E2,2.9473685E2,6.6754694E0,7.978452E0,1.07664585E1,1.5568362E1,1.2683036E1,-6.610169E1,-3.4848484E1,2.0085883E-1,1.0526316E1,2.8571428E1,5.7692307E1,1E2,1.8E1,1.13E6,5.173827E0,-2.7061613E0,-2.1563585E0,-1.8124541E0,-1.5438205E0,-1.4745145E0,-1.1778936E0,-9.1736966E-1,-6.3492364E-1,-4.255641E-1,-2.0248543E-1,9.01258E-2,4.0545115E-1,8.8720125E-1,1.2229487E0,1.2358044E0,2.4544218E0,4.361579E0,3.3809853E0],"split_indices":[11,11,11,11,11,8,8,11,11,11,11,9,0,0,0,11,11,11,11,11,0,0,0,0,0,11,11,13,11,11,11,11,8,0,0,0,0,0,0,0,0,0,0,0,0,0,0,0,0,0,0,0,0],"split_type":[0,0,0,0,0,0,0,0,0,0,0,0,0,0,0,0,0,0,0,0,0,0,0,0,0,0,0,0,0,0,0,0,0,0,0,0,0,0,0,0,0,0,0,0,0,0,0,0,0,0,0,0,0],"sum_hessian":[1.2073E4,1.1767E4,3.06E2,1.1347E4,4.2E2,1.08E2,1.98E2,8.492E3,2.855E3,2.46E2,1.74E2,1.01E2,7E0,1.72E2,2.6E1,2.745E3,5.747E3,2.43E3,4.25E2,1.39E2,1.07E2,9E1,8.4E1,4.8E1,5.3E1,7.11E2,2.034E3,3.335E3,2.412E3,1.057E3,1.373E3,2.96E2,1.29E2,7.8E1,6.1E1,2.33E2,4.78E2,1.238E3,7.96E2,3.89E2,2.946E3,1.673E3,7.39E2,5.42E2,5.15E2,9.75E2,3.98E2,2.3E2,6.6E1,1.3E1,1.16E2,3.9E1,3.9E1],"tree_param":{"num_deleted":"0","num_feature":"20","num_nodes":"53","size_leaf_vector":"1"}},{"base_weights":[7.7309537E-1,-1.2332566E1,4.8243454E2,-1.7919483E1,1.3480528E2,2.7017996E2,5.781207E2,-2.5000898E1,3.4646595E0,1.016135E2,1.7602225E2,1.4804553E1,1.20563345E1,5.4939215E2,4.797738E1,-3.564983E1,-1.9965847E1,-3.0432078E-1,2.9456656E1,8.573608E1,6.289409E0,7.4935007E0,1.0263072E1,2.7529577E1,7.5877595E0,-4.4546085E1,-3.248993E1,-2.3415415E1,-1.6244404E1,-5.411535E0,4.407502E0,2.0188366E1,4.3780617E1,9.554727E1,7.017672E1,-2.5720923E0,-2.0527706E0,-1.7173208E0,-1.4604095E0,-1.455571E0,-1.1377465E0,-9.4447184E-1,-6.769753E-1,-3.7891048E-1,-1.3160472E-1,1.1976043E-1,4.5257336E-1,9.221166E-1,1.2007267E0,2.6672723E0,1.8815584E0,4.8905907E0,2.768507E0,2.497076E0,3.9070828E0],"categories":[],"categories_nodes":[],"categories_segments":[],"categories_sizes":[],"default_left":[0,0,0,0,0,0,0,0,0,0,0,0,0,0,0,0,0,0,0,0,0,0,0,0,0,0,0,0,0,0,0,0,0,0,0,0,0,0,0,0,0,0,0,0,0,0,0,0,0,0,0,0,0,0,0],"id":20,"left_children":[1,3,5,7,9,11,13,15,17,19,21,-1,-1,23,-1,25,27,29,31,33,-1,-1,-1,-1,-1,35,37,39,41,43,45,47,49,51,53,-1,-1,-1,-1,-1,-1,-1,-1,-1,-1,-1,-1,-1,-1,-1,-1,-1,-1,-1,-1],"loss_changes":[7.602098E7,9.640093E6,6.32264E6,1.7106408E6,5.69013E5,4.6375E3,1.8726E6,4.5429E5,2.753838E5,8.1335E4,1.145255E5,0E0,0E0,1.4696E4,0E0,7.50995E4,7.361425E4,5.9125742E4,4.637822E4,1.5887875E4,0E0,0E0,0E0,0E0,0E0,1.5002375E4,1.1261E4,1.0582625E4,1.960525E4,7.0801562E3,1.1921258E4,1.0135E3,6.1683125E3,2.590625E3,5.9289688E3,0E0,0E0,0E0,0E0,0E0,0E0,0E0,0E0,0E0,0E0,0E0,0E0,0E0,0E0,0E0,0E0,0E0,0E0,0E0,0E0],"parents":[2147483647,0,0,1,1,2,2,3,3,4,4,5,5,6,6,7,7,8,8,9,9,10,10,13,13,15,15,16,16,17,17,18,18,19,19,25,25,26,26,27,27,28,28,29,29,30,30,31,31,32,32,33,33,34,34],"right_children":[2,4,6,8,10,12,14,16,18,20,22,-1,-1,24,-1,26,28,30,32,34,-1,-1,-1,-1,-1,36,38,40,42,44,46,48,50,52,54,-1,-1,-1,-1,-1,-1,-1,-1,-1,-1,-1,-1,-1,-1,-1,-1,-1,-1,-1,-1],"split_conditions":[6.952381E2,1.8571428E2,1.3513514E1,2.1428572E1,4.090909E2,4.6817203E5,1.072E3,-2.3255814E1,7.692308E1,3.473684E2,4.8235294E2,1.4804553E1,1.20563345E1,2.2E2,4.797738E1,-4.857143E1,-4.8128343E0,4.5323742E1,1.125E2,-1.0126582E1,6.289409E0,7.4935007E0,1.0263072E1,2.7529577E1,7.5877595E0,-6.610169E1,-3.4444443E1,4.91888E5,5.2E5,3.2592594E1,6.455696E1,1E2,4.65444E5,1.3420345E6,2.742857E2,-2.5720923E0,-2.0527706E0,-1.7173208E0,-1.4604095E0,-1.455571E0,-1.1377465E0,-9.4447184E-1,-6.769753E-1,-3.7891048E-1,-1.3160472E-1,1.1976043E-1,4.5257336E-1,9.221166E-1,1.2007267E0,2.6672723E0,1.8815584E0,4.8905907E0,2.768507E0,2.497076E0,3.9070828E0],"split_indices":[11,11,7,11,11,6,8,11,11,11,11,0,0,1,0,11,11,11,11,7,0,0,0,0,0,11,11,6,6,11,11,11,6,6,11,0,0,0,0,0,0,0,0,0,0,0,0,0,0,0,0,0,0,0,0],"split_type":[0,0,0,0,0,0,0,0,0,0,0,0,0,0,0,0,0,0,0,0,0,0,0,0,0,0,0,0,0,0,0,0,0,0,0,0,0,0,0,0,0,0,0,0,0,0,0,0,0,0,0,0,0,0,0],"sum_hessian":[1.2041E4,1.1723E4,3.18E2,1.1295E4,4.28E2,1E2,2.18E2,8.485E3,2.81E3,2.39E2,1.89E2,4.8E1,5.2E1,2.05E2,1.3E1,2.722E3,5.763E3,2.455E3,3.55E2,1.47E2,9.2E1,1.03E2,8.6E1,2.04E2,1E0,7.1E2,2.012E3,2.988E3,2.775E3,1.178E3,1.277E3,2.17E2,1.38E2,8.7E1,6E1,2.34E2,4.76E2,1.279E3,7.33E2,3.06E2,2.682E3,1.4E3,1.375E3,6.61E2,5.17E2,8.92E2,3.85E2,1.53E2,6.4E1,5.1E1,8.7E1,8.1E1,6E0,1.9E1,4.1E1],"tree_param":{"num_deleted":"0","num_feature":"20","num_nodes":"55","size_leaf_vector":"1"}},{"base_weights":[-3.735648E-1,-1.18937E1,4.5261172E2,-1.7267607E1,1.21325165E2,2.579491E2,5.462385E2,-2.4925985E1,-4.337886E-1,7.463184E1,1.5095386E2,1.4085299E1,1.1451663E1,5.2081445E2,4.516332E1,-3.5025154E1,-2.0584425E1,-4.609556E0,1.444328E1,8.577688E1,5.605205E1,1.323011E2,9.659131E0,3.3620014E1,5.0681766E2,-4.4987404E1,-3.247565E1,-2.4313025E1,-1.8322693E1,-9.153751E0,4.822244E-1,1.0575314E1,3.0895716E1,3.7454839E0,4.6792197E0,2.59545E0,3.5875535E0,5.974399E0,7.146892E0,2.5400457E1,7.398065E0,-2.7494168E0,-2.1295426E0,-1.7469984E0,-1.5111058E0,-1.2961463E0,-1.1519741E0,-1.1030055E0,-8.475525E-1,-5.7590187E-1,-3.5232237E-1,-7.9936944E-2,1.2908415E-1,3.640777E-1,7.9779476E-1,1.2411898E0,2.015965E0],"categories":[],"categories_nodes":[],"categories_segments":[],"categories_sizes":[],"default_left":[0,0,0,0,0,0,0,0,0,0,0,0,0,0,0,0,0,0,0,0,0,0,0,0,0,0,0,0,0,0,0,0,0,0,0,0,0,0,0,0,0,0,0,0,0,0,0,0,0,0,0,0,0,0,0,0,0],"id":21,"left_children":[1,3,5,7,9,11,13,15,17,19,21,-1,-1,23,-1,25,27,29,31,33,35,37,-1,-1,39,41,43,45,47,49,51,53,55,-1,-1,-1,-1,-1,-1,-1,-1,-1,-1,-1,-1,-1,-1,-1,-1,-1,-1,-1,-1,-1,-1,-1,-1],"loss_changes":[6.2913816E7,8.419002E6,5.30856E6,1.45704E6,6.195925E5,3.4885E3,1.354068E6,3.39876E5,2.1967203E5,3.2258E4,1.934175E5,0E0,0E0,6.234E4,0E0,5.78195E4,4.538825E4,6.388855E4,4.8992312E4,2.322625E3,8.284219E2,9.6335E3,0E0,0E0,9.4E2,8.99475E3,9.2845E3,3.603625E3,1.698925E4,7.1879766E3,5.696799E3,1.1031172E4,7.4103438E3,0E0,0E0,0E0,0E0,0E0,0E0,0E0,0E0,0E0,0E0,0E0,0E0,0E0,0E0,0E0,0E0,0E0,0E0,0E0,0E0,0E0,0E0,0E0,0E0],"parents":[2147483647,0,0,1,1,2,2,3,3,4,4,5,5,6,6,7,7,8,8,9,9,10,10,13,13,15,15,16,16,17,17,18,18,19,19,20,20,21,21,24,24,25,25,26,26,27,27,28,28,29,29,30,30,31,31,32,32],"right_children":[2,4,6,8,10,12,14,16,18,20,22,-1,-1,24,-1,26,28,30,32,34,36,38,-1,-1,40,42,44,46,48,50,52,54,56,-1,-1,-1,-1,-1,-1,-1,-1,-1,-1,-1,-1,-1,-1,-1,-1,-1,-1,-1,-1,-1,-1,-1,-1],"split_conditions":[6.952381E2,1.7777777E2,1.3513514E1,1.0526316E1,3.473684E2,4.6817203E5,1.072E3,-2.8571428E1,5.7692307E1,-7.0833335E0,4.8235294E2,1.4085299E1,1.1451663E1,3.15E1,4.516332E1,-5.483871E1,-1.25E1,3.3333332E1,1E2,2.9473685E2,1.3228956E4,4.090909E2,9.659131E0,3.3620014E1,2.14E2,-8.1343285E1,-4.1346153E1,-1.7910448E1,5.08888E5,5.138871E5,5.1785713E1,6.7741936E1,1.5066667E2,3.7454839E0,4.6792197E0,2.59545E0,3.5875535E0,5.974399E0,7.146892E0,2.5400457E1,7.398065E0,-2.7494168E0,-2.1295426E0,-1.7469984E0,-1.5111058E0,-1.2961463E0,-1.1519741E0,-1.1030055E0,-8.475525E-1,-5.7590187E-1,-3.5232237E-1,-7.9936944E-2,1.2908415E-1,3.640777E-1,7.9779476E-1,1.2411898E0,2.015965E0],"split_indices":[11,11,7,11,11,6,8,11,11,7,11,0,0,10,0,11,11,11,11,11,3,11,0,0,1,11,11,11,6,6,11,11,11,0,0,0,0,0,0,0,0,0,0,0,0,0,0,0,0,0,0,0,0,0,0,0,0],"split_type":[0,0,0,0,0,0,0,0,0,0,0,0,0,0,0,0,0,0,0,0,0,0,0,0,0,0,0,0,0,0,0,0,0,0,0,0,0,0,0,0,0,0,0,0,0,0,0,0,0,0,0,0,0,0,0,0,0],"sum_hessian":[1.2054E4,1.1756E4,2.98E2,1.1301E4,4.55E2,9.8E1,2E2,7.767E3,3.534E3,1.78E2,2.77E2,4.9E1,4.9E1,1.89E2,1.1E1,2.333E3,5.434E3,2.76E3,7.74E2,1.09E2,6.9E1,1.95E2,8.2E1,1.2E1,1.77E2,4.72E2,1.861E3,2.048E3,3.386E3,1.458E3,1.302E3,6.28E2,1.46E2,5E1,5.9E1,5.8E1,1.1E1,9.4E1,1.01E2,1.76E2,1E0,8.7E1,3.85E2,8.82E2,9.79E2,8.96E2,1.152E3,9.05E2,2.481E3,6.85E2,7.73E2,6.54E2,6.48E2,3.91E2,2.37E2,9.1E1,5.5E1],"tree_param":{"num_deleted":"0","num_feature":"20","num_nodes":"57","size_leaf_vector":"1"}},{"base_weights":[6.2453455E-1,-1.1078636E1,4.377528E2,-1.614703E1,1.226603E2,2.4479329E2,5.245679E2,-2.2530174E1,3.2969892E0,9.406304E1,1.6100761E2,1.3389539E1,1.0894889E1,4.3876846E1,4.9561713E2,-3.2150673E1,-1.7994654E1,-1.5966167E-1,2.6581818E1,7.80627E1,5.747907E0,6.8582315E0,9.154063E0,3.206832E1,2.4148487E1,-3.998112E1,-2.9176113E1,-2.0859026E1,-1.4125791E1,-4.47896E0,4.40502E0,1.7994732E1,4.0592937E1,6.724279E1,4.4503784E0,-2.4693048E0,-1.8803154E0,-1.5637414E0,-1.3405112E0,-1.2778186E0,-1.0113378E0,-8.254654E-1,-5.6268895E-1,-3.2741782E-1,-8.7428436E-2,1.2271408E-1,4.1086164E-1,8.634699E-1,1.3195032E0,2.440126E0,1.6931355E0,3.7327802E0,2.8213098E0],"categories":[],"categories_nodes":[],"categories_segments":[],"categories_sizes":[],"default_left":[0,0,0,0,0,0,0,0,0,0,0,0,0,0,0,0,0,0,0,0,0,0,0,0,0,0,0,0,0,0,0,0,0,0,0,0,0,0,0,0,0,0,0,0,0,0,0,0,0,0,0,0,0],"id":22,"left_children":[1,3,5,7,9,11,13,15,17,19,21,-1,-1,-1,23,25,27,29,31,33,-1,-1,-1,-1,-1,35,37,39,41,43,45,47,49,51,-1,-1,-1,-1,-1,-1,-1,-1,-1,-1,-1,-1,-1,-1,-1,-1,-1,-1,-1],"loss_changes":[6.1409644E7,7.926625E6,5.114896E6,1.3982185E6,4.531155E5,2.883E3,1.762108E6,3.69481E5,2.24162E5,7.360525E4,7.01485E4,0E0,0E0,0E0,6.0752E4,6.209475E4,6.3603375E4,4.785129E4,4.258283E4,1.09493125E4,0E0,0E0,0E0,0E0,0E0,1.47825E4,8.95325E3,9.31675E3,1.6626719E4,7.034426E3,8.755059E3,9.14375E2,5.8617344E3,1.88125E3,0E0,0E0,0E0,0E0,0E0,0E0,0E0,0E0,0E0,0E0,0E0,0E0,0E0,0E0,0E0,0E0,0E0,0E0,0E0],"parents":[2147483647,0,0,1,1,2,2,3,3,4,4,5,5,6,6,7,7,8,8,9,9,10,10,14,14,15,15,16,16,17,17,18,18,19,19,25,25,26,26,27,27,28,28,29,29,30,30,31,31,32,32,33,33],"right_children":[2,4,6,8,10,12,14,16,18,20,22,-1,-1,-1,24,26,28,30,32,34,-1,-1,-1,-1,-1,36,38,40,42,44,46,48,50,52,-1,-1,-1,-1,-1,-1,-1,-1,-1,-1,-1,-1,-1,-1,-1,-1,-1,-1,-1],"split_conditions":[6.952381E2,1.8571428E2,1.3513514E1,2.1428572E1,4.111111E2,1.9E1,1.9E1,-2.3255814E1,7.692308E1,3.473684E2,4.8235294E2,1.3389539E1,1.0894889E1,4.3876846E1,3.15E1,-4.6666668E1,-2.4390244E0,4.8E1,1.125E2,2.9473685E2,5.747907E0,6.8582315E0,9.154063E0,3.206832E1,2.4148487E1,-7.313433E1,-3.6607143E1,2.0085883E-1,5.2205297E5,3.3333332E1,6.455696E1,5.0406834E1,4.65444E5,5.48E5,4.4503784E0,-2.4693048E0,-1.8803154E0,-1.5637414E0,-1.3405112E0,-1.2778186E0,-1.0113378E0,-8.254654E-1,-5.6268895E-1,-3.2741782E-1,-8.7428436E-2,1.2271408E-1,4.1086164E-1,8.634699E-1,1.3195032E0,2.440126E0,1.6931355E0,3.7327802E0,2.8213098E0],"split_indices":[11,11,7,11,11,5,5,11,11,11,11,0,0,0,10,11,11,11,11,11,0,0,0,0,0,11,11,13,6,11,11,13,6,6,0,0,0,0,0,0,0,0,0,0,0,0,0,0,0,0,0,0,0],"split_type":[0,0,0,0,0,0,0,0,0,0,0,0,0,0,0,0,0,0,0,0,0,0,0,0,0,0,0,0,0,0,0,0,0,0,0,0,0,0,0,0,0,0,0,0,0,0,0,0,0,0,0,0,0],"sum_hessian":[1.2002E4,1.169E4,3.12E2,1.1264E4,4.26E2,9.8E1,2.14E2,8.48E3,2.784E3,2.46E2,1.8E2,4.8E1,5E1,1.4E1,2E2,2.715E3,5.765E3,2.425E3,3.59E2,1.42E2,1.04E2,9E1,9E1,1.2E1,1.88E2,7.44E2,1.971E3,3.31E3,2.455E3,1.246E3,1.179E3,2.24E2,1.35E2,7.5E1,6.7E1,1.46E2,5.98E2,1.038E3,9.33E2,3.88E2,2.922E3,1.339E3,1.116E3,7.08E2,5.38E2,7.81E2,3.98E2,2.09E2,1.5E1,5.8E1,7.7E1,4.1E1,3.4E1],"tree_param":{"num_deleted":"0","num_feature":"20","num_nodes":"53","size_leaf_vector":"1"}},{"base_weights":[5.5771726E-1,-1.0614354E1,4.1515613E2,-1.5658558E1,1.1009496E2,2.4939772E2,5.0701355E2,-2.2590778E1,-2.998125E-1,8.3153206E1,1.4999635E2,2.3296301E2,1.9180103E1,2.2990948E1,3.7701733E1,-3.1657116E1,-1.8604254E1,-4.1525607E0,1.3591682E1,5.982714E1,9.9373985E1,6.438362E0,8.6702795E0,1.274903E1,1.0372337E1,-4.1268055E1,-2.9413597E1,-2.1392817E1,-1.6053654E1,-7.7382374E0,9.518456E-1,1.0572961E1,3.4455376E1,6.4442726E1,2.369779E0,4.231853E0,5.401008E0,-2.4733498E0,-1.9396725E0,-1.576548E0,-1.3585436E0,-1.342604E0,-1.0471319E0,-9.671133E-1,-7.406911E-1,-4.742827E-1,-2.3417163E-1,-3.9010167E-2,1.182093E-1,3.2956177E-1,7.8701025E-1,1.3175387E0,1.8395464E0,3.609686E0,2.6824079E0],"categories":[],"categories_nodes":[],"categories_segments":[],"categories_sizes":[],"default_left":[0,0,0,0,0,0,0,0,0,0,0,0,0,0,0,0,0,0,0,0,0,0,0,0,0,0,0,0,0,0,0,0,0,0,0,0,0,0,0,0,0,0,0,0,0,0,0,0,0,0,0,0,0,0,0],"id":23,"left_children":[1,3,5,7,9,11,13,15,17,19,21,23,-1,-1,-1,25,27,29,31,33,35,-1,-1,-1,-1,37,39,41,43,45,47,49,51,53,-1,-1,-1,-1,-1,-1,-1,-1,-1,-1,-1,-1,-1,-1,-1,-1,-1,-1,-1,-1,-1],"loss_changes":[5.5958036E7,7.1646145E6,4.70024E6,1.2023615E6,4.94934E5,1.6428E5,2.019872E6,2.8064075E5,1.8807373E5,1.01511E5,7.1596E4,6.095E3,0E0,0E0,0E0,4.999675E4,3.8113875E4,5.035823E4,4.769072E4,3.7738125E3,1.2008875E4,0E0,0E0,0E0,0E0,7.15025E3,8.303375E3,5.77825E3,1.12441875E4,8.581797E3,2.7807764E3,1.36400625E4,8.476875E2,3.1550938E3,0E0,0E0,0E0,0E0,0E0,0E0,0E0,0E0,0E0,0E0,0E0,0E0,0E0,0E0,0E0,0E0,0E0,0E0,0E0,0E0,0E0],"parents":[2147483647,0,0,1,1,2,2,3,3,4,4,5,5,6,6,7,7,8,8,9,9,10,10,11,11,15,15,16,16,17,17,18,18,19,19,20,20,25,25,26,26,27,27,28,28,29,29,30,30,31,31,32,32,33,33],"right_children":[2,4,6,8,10,12,14,16,18,20,22,24,-1,-1,-1,26,28,30,32,34,36,-1,-1,-1,-1,38,40,42,44,46,48,50,52,54,-1,-1,-1,-1,-1,-1,-1,-1,-1,-1,-1,-1,-1,-1,-1,-1,-1,-1,-1,-1,-1],"split_conditions":[6.952381E2,1.7777777E2,1.55E3,1.0526316E1,4.090909E2,4.85E5,4.35E5,-2.8571428E1,5.7692307E1,2.9473685E2,4.8235294E2,4.6817203E5,1.9180103E1,2.2990948E1,3.7701733E1,-5.6626507E1,-8.77193E0,3.5714287E1,1.125E2,1.28E2,3.473684E2,6.438362E0,8.6702795E0,1.274903E1,1.0372337E1,-8.1343285E1,-4.1129032E1,4.85E5,5.08888E5,2.5531916E1,5.1785713E1,6.7741936E1,1.6333334E1,5.48E5,2.369779E0,4.231853E0,5.401008E0,-2.4733498E0,-1.9396725E0,-1.576548E0,-1.3585436E0,-1.342604E0,-1.0471319E0,-9.671133E-1,-7.406911E-1,-4.742827E-1,-2.3417163E-1,-3.9010167E-2,1.182093E-1,3.2956177E-1,7.8701025E-1,1.3175387E0,1.8395464E0,3.609686E0,2.6824079E0],"split_indices":[11,11,11,11,11,6,6,11,11,11,11,6,0,0,0,11,11,11,11,9,11,0,0,0,0,11,11,6,6,11,11,11,9,6,0,0,0,0,0,0,0,0,0,0,0,0,0,0,0,0,0,0,0,0,0],"split_type":[0,0,0,0,0,0,0,0,0,0,0,0,0,0,0,0,0,0,0,0,0,0,0,0,0,0,0,0,0,0,0,0,0,0,0,0,0,0,0,0,0,0,0,0,0,0,0,0,0,0,0,0,0,0,0],"sum_hessian":[1.2079E4,1.1763E4,3.16E2,1.1292E4,4.71E2,1.14E2,2.02E2,7.78E3,3.512E3,2.83E2,1.88E2,1.04E2,1E1,1.72E2,3E1,2.374E3,5.406E3,2.75E3,7.62E2,1.18E2,1.65E2,1.02E2,8.6E1,5.1E1,5.3E1,4.46E2,1.928E3,2.579E3,2.827E3,1.615E3,1.135E3,6.67E2,9.5E1,8.3E1,3.5E1,6.5E1,1E2,9.9E1,3.47E2,9.85E2,9.43E2,1.92E2,2.387E3,7.7E2,2.057E3,1.026E3,5.89E2,5.1E2,6.25E2,3.78E2,2.89E2,2.4E1,7.1E1,4.5E1,3.8E1],"tree_param":{"num_deleted":"0","num_feature":"20","num_nodes":"55","size_leaf_vector":"1"}},{"base_weights":[4.9317384E-1,-9.259744E0,4.374072E2,-1.4601689E1,1.1934172E2,3.9756226E2,6.6286896E2,-2.145897E1,3.443098E-1,9.572051E1,1.7973766E2,1.2101908E1,2.18523E1,1.829309E1,3.535623E1,-3.009541E1,-1.7677752E1,-2.6291876E0,2.221895E1,6.993357E1,1.1364024E2,1.8753378E2,6.629355E0,-3.895301E1,-2.7848616E1,-2.1065369E1,-1.5700182E1,-7.370362E0,2.3397691E0,1.5178709E1,3.6801636E1,7.869606E1,5.7008034E1,5.1253824E0,6.151052E0,1.8828851E2,2.6317024E0,-2.3768346E0,-1.8340997E0,-1.4928976E0,-1.2882102E0,-1.3729494E0,-1.038604E0,-9.498087E-1,-7.235808E-1,-4.5157322E-1,-2.2501047E-1,4.990457E-2,3.1111455E-1,6.96218E-1,9.916267E-1,2.207103E0,1.5625174E0,4.0017657E0,2.103232E0,1.9788116E0,3.197578E0,1.0081292E1,8.241965E0],"categories":[],"categories_nodes":[],"categories_segments":[],"categories_sizes":[],"default_left":[0,0,0,0,0,0,0,0,0,0,0,0,0,0,0,0,0,0,0,0,0,0,0,0,0,0,0,0,0,0,0,0,0,0,0,0,0,0,0,0,0,0,0,0,0,0,0,0,0,0,0,0,0,0,0,0,0,0,0],"id":24,"left_children":[1,3,5,7,9,11,13,15,17,19,21,-1,-1,-1,-1,23,25,27,29,31,33,35,-1,37,39,41,43,45,47,49,51,53,55,-1,-1,57,-1,-1,-1,-1,-1,-1,-1,-1,-1,-1,-1,-1,-1,-1,-1,-1,-1,-1,-1,-1,-1,-1,-1],"loss_changes":[5.1325784E7,8.0957635E6,2.099132E6,1.1594648E6,6.533085E5,1.282012E6,2.40773E5,2.5271725E5,2.3155066E5,1.49165E5,2.329E4,0E0,0E0,0E0,0E0,4.5882E4,3.58185E4,7.385018E4,4.317697E4,1.1596625E4,8.1715E3,1.28925E3,0E0,7.51575E3,7.13E3,3.15375E3,1.35373125E4,7.606617E3,7.96891E3,1.4108828E3,4.2438906E3,6.56125E2,4.8523594E3,0E0,0E0,8.5375E2,0E0,0E0,0E0,0E0,0E0,0E0,0E0,0E0,0E0,0E0,0E0,0E0,0E0,0E0,0E0,0E0,0E0,0E0,0E0,0E0,0E0,0E0,0E0],"parents":[2147483647,0,0,1,1,2,2,3,3,4,4,5,5,6,6,7,7,8,8,9,9,10,10,15,15,16,16,17,17,18,18,19,19,20,20,21,21,23,23,24,24,25,25,26,26,27,27,28,28,29,29,30,30,31,31,32,32,35,35],"right_children":[2,4,6,8,10,12,14,16,18,20,22,-1,-1,-1,-1,24,26,28,30,32,34,36,-1,38,40,42,44,46,48,50,52,54,56,-1,-1,58,-1,-1,-1,-1,-1,-1,-1,-1,-1,-1,-1,-1,-1,-1,-1,-1,-1,-1,-1,-1,-1,-1,-1],"split_conditions":[8.416667E2,1.8571428E2,7.401816E2,1.0526316E1,4.8235294E2,2.2E1,1.55E3,-2.8571428E1,6.7741936E1,3.473684E2,2.3E1,1.2101908E1,2.18523E1,1.829309E1,3.535623E1,-5.483871E1,-1.3513514E1,3.5714287E1,1.125E2,-1.0126582E1,4.090909E2,6.366667E5,6.629355E0,-8.1343285E1,-4.1129032E1,4.85E5,5.08888E5,2.5531916E1,5.7692307E1,1E2,4.65444E5,1.3420345E6,2.2E1,5.1253824E0,6.151052E0,1.7E2,2.6317024E0,-2.3768346E0,-1.8340997E0,-1.4928976E0,-1.2882102E0,-1.3729494E0,-1.038604E0,-9.498087E-1,-7.235808E-1,-4.5157322E-1,-2.2501047E-1,4.990457E-2,3.1111455E-1,6.96218E-1,9.916267E-1,2.207103E0,1.5625174E0,4.0017657E0,2.103232E0,1.9788116E0,3.197578E0,1.0081292E1,8.241965E0],"split_indices":[11,11,13,11,11,5,11,11,11,11,5,0,0,0,0,11,11,11,11,7,11,6,0,11,11,6,6,11,11,11,6,6,5,0,0,8,0,0,0,0,0,0,0,0,0,0,0,0,0,0,0,0,0,0,0,0,0,0,0],"split_type":[0,0,0,0,0,0,0,0,0,0,0,0,0,0,0,0,0,0,0,0,0,0,0,0,0,0,0,0,0,0,0,0,0,0,0,0,0,0,0,0,0,0,0,0,0,0,0,0,0,0,0,0,0,0,0,0,0,0,0],"sum_hessian":[1.2043E4,1.1781E4,2.62E2,1.1312E4,4.69E2,2.25E2,3.7E1,7.754E3,3.558E3,3.39E2,1.3E2,4.7E1,1.78E2,6E0,3.1E1,2.359E3,5.395E3,3.133E3,4.25E2,1.41E2,1.98E2,1.09E2,2.1E1,4.74E2,1.885E3,1.985E3,3.41E3,1.603E3,1.53E3,2.88E2,1.37E2,8.1E1,6E1,9.6E1,1.02E2,1.08E2,1E0,9.5E1,3.79E2,9.53E2,9.32E2,8.3E1,1.902E3,9.22E2,2.488E3,1.014E3,5.89E2,1.138E3,3.92E2,2.3E2,5.8E1,5.6E1,8.1E1,7.7E1,4E0,1.9E1,4.1E1,6.4E1,4.4E1],"tree_param":{"num_deleted":"0","num_feature":"20","num_nodes":"59","size_leaf_vector":"1"}},{"base_weights":[6.48373E-1,-7.632326E0,1.8587752E2,1.8814928E1,-1.4256947E1,2.0770182E1,5.594498E1,1.172361E1,1.3949736E2,-1.5445488E1,6.4380065E-2,1.5470109E1,6.5076715E2,-8.8949025E-1,3.7586117E1,6.237428E-1,8.746945E0,-1.7193447E1,-1.0995661E1,8.750289E-2,-5.527529E0,-1.1734389E1,2.29555E2,3.822387E1,1.852142E1,-4.4268994E0,2.803439E1,1.2666817E2,2.3565853E1,-2.1587513E1,-1.4436581E1,-1.3071369E1,-4.316687E0,5.739631E-1,-7.443663E0,-1.7355751E1,2.254897E0,1.691962E1,2.7364975E1,5.009168E-2,-4.8147902E-1,4.1838117E0,1.3589668E-1,1.1525945E1,5.6420034E-1,3.3243282E0,4.4181657E-1,-1.2522298E0,-9.1959924E-1,4.871876E0,-7.455663E-1,-6.2809664E-1,-1.4218265E0,3.0243154E0,-2.8488073E-1,-3.1648692E-1,-1.1972152E0,-7.666498E-1,-2.135043E0,1.4988981E0,-1.2995927E-1,-4.6915993E-1,9.331594E0],"categories":[],"categories_nodes":[],"categories_segments":[],"categories_sizes":[],"default_left":[0,0,0,0,0,0,0,0,0,0,0,0,0,0,0,0,0,0,0,0,0,0,0,0,0,0,0,0,0,0,0,0,0,0,0,0,0,0,0,0,0,0,0,0,0,0,0,0,0,0,0,0,0,0,0,0,0,0,0,0,0,0,0],"id":25,"left_children":[1,3,5,7,9,-1,11,13,15,17,19,21,23,25,27,-1,-1,29,31,-1,33,35,37,-1,-1,39,41,43,45,47,49,51,53,-1,55,57,59,61,-1,-1,-1,-1,-1,-1,-1,-1,-1,-1,-1,-1,-1,-1,-1,-1,-1,-1,-1,-1,-1,-1,-1,-1,-1],"loss_changes":[1.8459492E7,2.0186072E6,1.5335558E7,1.9735455E6,1.5681975E5,0E0,7.9347995E6,7.1148956E5,5.740575E5,6.59795E4,6.6739653E3,1.808156E6,3.86241E5,1.502211E5,8.90017E5,0E0,0E0,7.36555E4,3.324397E4,0E0,5.429765E3,2.1743457E4,2.3554705E6,0E0,0E0,3.6952758E4,2.2515723E5,1.1597236E6,3.9074522E5,2.5522375E4,2.008875E5,1.3982906E4,5.1442402E4,0E0,2.568748E3,9.444867E3,1.0843521E4,9.995725E4,0E0,0E0,0E0,0E0,0E0,0E0,0E0,0E0,0E0,0E0,0E0,0E0,0E0,0E0,0E0,0E0,0E0,0E0,0E0,0E0,0E0,0E0,0E0,0E0,0E0],"parents":[2147483647,0,0,1,1,2,2,3,3,4,4,6,6,7,7,8,8,9,9,10,10,11,11,12,12,13,13,14,14,17,17,18,18,20,20,21,21,22,22,25,25,26,26,27,27,28,28,29,29,30,30,31,31,32,32,34,34,35,35,36,36,37,37],"right_children":[2,4,6,8,10,-1,12,14,16,18,20,22,24,26,28,-1,-1,30,32,-1,34,36,38,-1,-1,40,42,44,46,48,50,52,54,-1,56,58,60,62,-1,-1,-1,-1,-1,-1,-1,-1,-1,-1,-1,-1,-1,-1,-1,-1,-1,-1,-1,-1,-1,-1,-1,-1,-1],"split_conditions":[7.368421E1,4.85E5,4.35E5,1.4575E2,2.3633333E2,2.0770182E1,3.2833334E2,4.6581034E5,4.739022E5,8.275862E0,1.4708333E2,1.5741346E6,1.8320328E4,1.17666664E2,4.6817203E5,6.237428E-1,8.746945E0,4.7666668E1,2.7E1,8.750289E-2,5E5,1.22E6,2.3E1,3.822387E1,1.852142E1,2.3E1,1.3766667E2,1.9E1,-1.7857143E1,2E1,3.4916668E1,7.2E1,1.2166667E1,5.739631E-1,1.5377679E6,1.2034474E6,2E1,1.29E2,2.7364975E1,5.009168E-2,-4.8147902E-1,4.1838117E0,1.3589668E-1,1.1525945E1,5.6420034E-1,3.3243282E0,4.4181657E-1,-1.2522298E0,-9.1959924E-1,4.871876E0,-7.455663E-1,-6.2809664E-1,-1.4218265E0,3.0243154E0,-2.8488073E-1,-3.1648692E-1,-1.1972152E0,-7.666498E-1,-2.135043E0,1.4988981E0,-1.2995927E-1,-4.6915993E-1,9.331594E0],"split_indices":[7,6,6,10,9,0,9,6,6,7,10,6,3,10,6,0,0,9,5,0,6,6,5,0,0,5,9,5,7,5,10,7,10,0,6,6,5,1,0,0,0,0,0,0,0,0,0,0,0,0,0,0,0,0,0,0,0,0,0,0,0,0,0],"split_type":[0,0,0,0,0,0,0,0,0,0,0,0,0,0,0,0,0,0,0,0,0,0,0,0,0,0,0,0,0,0,0,0,0,0,0,0,0,0,0,0,0,0,0,0,0,0,0,0,0,0,0,0,0,0,0,0,0,0,0,0,0,0,0],"sum_hessian":[1.2033E4,1.1519E4,5.14E2,2.307E3,9.212E3,1.85E2,3.29E2,2.18E3,1.27E2,8.506E3,7.06E2,3.09E2,2E1,1.466E3,7.14E2,2.8E1,9.9E1,6.105E3,2.401E3,5.43E2,1.63E2,2.75E2,3.4E1,1.3E1,7E0,1.307E3,1.59E2,9.6E1,6.18E2,2.351E3,3.754E3,1.831E3,5.7E2,1.6E1,1.47E2,1.96E2,7.9E1,2.1E1,1.3E1,6.4E2,6.67E2,4.9E1,1.1E2,5E1,4.6E1,1.57E2,4.61E2,1.126E3,1.225E3,1.5E1,3.739E3,1.774E3,5.7E1,1.1E1,5.59E2,1.39E2,8E0,1.83E2,1.3E1,1.1E1,6.8E1,1.9E1,2E0],"tree_param":{"num_deleted":"0","num_feature":"20","num_nodes":"63","size_leaf_vector":"1"}},{"base_weights":[3.796713E-1,-9.110533E0,3.6042264E2,-1.3458331E1,9.6893845E1,1.0015498E1,4.2949374E2,-1.9576487E1,7.0673384E-2,7.185261E1,1.3433739E2,3.644919E1,4.0661078E2,-2.7576294E1,-1.6129211E1,-2.3079872E0,1.8876402E1,5.299842E1,8.659403E1,5.7459197E0,1.5658318E2,2.6418213E1,3.932967E2,-3.5873848E1,-2.5509336E1,-1.8063883E1,-1.3128301E1,-6.6741433E0,2.2779953E0,1.4655503E1,3.0816074E1,3.9342096E0,5.0080666E1,3.7328336E0,4.7417164E0,8.969335E0,1.4101486E2,1.9710655E1,5.59406E0,-2.1873872E0,-1.6915053E0,-1.3606935E0,-1.1807103E0,-1.2031405E0,-8.7361807E-1,-8.18596E-1,-5.8553076E-1,-4.680886E-1,-2.3572016E-1,5.2167594E-2,3.002648E-1,5.294795E-1,7.9782563E-1,8.5845387E-1,1.648583E0,2.1242762E0,2.8796906E0,7.411396E0,4.7227316E0],"categories":[],"categories_nodes":[],"categories_segments":[],"categories_sizes":[],"default_left":[0,0,0,0,0,0,0,0,0,0,0,0,0,0,0,0,0,0,0,0,0,0,0,0,0,0,0,0,0,0,0,0,0,0,0,0,0,0,0,0,0,0,0,0,0,0,0,0,0,0,0,0,0,0,0,0,0,0,0],"id":26,"left_children":[1,3,5,7,9,-1,11,13,15,17,19,-1,21,23,25,27,29,31,33,-1,35,-1,37,39,41,43,45,47,49,51,53,-1,55,-1,-1,-1,57,-1,-1,-1,-1,-1,-1,-1,-1,-1,-1,-1,-1,-1,-1,-1,-1,-1,-1,-1,-1,-1,-1],"loss_changes":[4.111178E7,5.404267E6,3.331252E6,9.3218575E5,4.23534E5,0E0,1.177028E6,2.13419E5,1.5696498E5,7.295525E4,6.14925E4,0E0,1.19644E5,3.91145E4,3.1241875E4,6.2387207E4,1.9404453E4,5.4275312E3,8.167E3,0E0,4.16975E3,0E0,3.864E3,5.9706875E3,5.404375E3,1.126825E4,9.598344E3,8.362086E3,6.988603E3,1.3809336E3,2.4344688E3,0E0,4.115375E3,0E0,0E0,0E0,4.134625E3,0E0,0E0,0E0,0E0,0E0,0E0,0E0,0E0,0E0,0E0,0E0,0E0,0E0,0E0,0E0,0E0,0E0,0E0,0E0,0E0,0E0,0E0],"parents":[2147483647,0,0,1,1,2,2,3,3,4,4,6,6,7,7,8,8,9,9,10,10,12,12,13,13,14,14,15,15,16,16,17,17,18,18,20,20,22,22,23,23,24,24,25,25,26,26,27,27,28,28,29,29,30,30,32,32,36,36],"right_children":[2,4,6,8,10,-1,12,14,16,18,20,-1,22,24,26,28,30,32,34,-1,36,-1,38,40,42,44,46,48,50,52,54,-1,56,-1,-1,-1,58,-1,-1,-1,-1,-1,-1,-1,-1,-1,-1,-1,-1,-1,-1,-1,-1,-1,-1,-1,-1,-1,-1],"split_conditions":[6.952381E2,1.7777777E2,1.3513514E1,1.0526316E1,4.090909E2,1.0015498E1,1.9E1,-2.8571428E1,6.7741936E1,2.9473685E2,4.8235294E2,3.644919E1,3.15E1,-5.483871E1,-5.4945054E0,3.5714287E1,1.125E2,1.9E1,3.473684E2,5.7459197E0,4.7075E5,2.6418213E1,2.14E2,-8.1343285E1,-4.0298508E1,4.85E5,5.08888E5,4.91888E5,5.7692307E1,7.692308E1,1.8E1,3.9342096E0,2E1,3.7328336E0,4.7417164E0,8.969335E0,2E1,1.9710655E1,5.59406E0,-2.1873872E0,-1.6915053E0,-1.3606935E0,-1.1807103E0,-1.2031405E0,-8.7361807E-1,-8.18596E-1,-5.8553076E-1,-4.680886E-1,-2.3572016E-1,5.2167594E-2,3.002648E-1,5.294795E-1,7.9782563E-1,8.5845387E-1,1.648583E0,2.1242762E0,2.8796906E0,7.411396E0,4.7227316E0],"split_indices":[11,11,7,11,11,0,5,11,11,11,11,0,10,11,11,11,11,5,11,0,6,0,1,11,11,6,6,6,11,11,8,0,5,0,0,0,5,0,0,0,0,0,0,0,0,0,0,0,0,0,0,0,0,0,0,0,0,0,0],"split_type":[0,0,0,0,0,0,0,0,0,0,0,0,0,0,0,0,0,0,0,0,0,0,0,0,0,0,0,0,0,0,0,0,0,0,0,0,0,0,0,0,0,0,0,0,0,0,0,0,0,0,0,0,0,0,0,0,0,0,0],"sum_hessian":[1.203E4,1.1722E4,3.08E2,1.1261E4,4.61E2,9.4E1,2.14E2,7.754E3,3.507E3,2.78E2,1.83E2,1.3E1,2.01E2,2.333E3,5.421E3,3.114E3,3.93E2,1.24E2,1.54E2,1.01E2,8.2E1,1.6E1,1.85E2,4.62E2,1.871E3,3.293E3,2.128E3,1.595E3,1.519E3,2.92E2,1.01E2,1E1,1.14E2,6.7E1,8.7E1,2.9E1,5.3E1,1.84E2,1E0,9.1E1,3.71E2,9.78E2,8.93E2,2.92E2,3.001E3,6.44E2,1.484E3,6.71E2,9.24E2,1.142E3,3.77E2,7.3E1,2.19E2,1.5E1,8.6E1,6E1,5.4E1,4.4E1,9E0],"tree_param":{"num_deleted":"0","num_feature":"20","num_nodes":"59","size_leaf_vector":"1"}},{"base_weights":[5.4927707E-2,-7.935067E0,3.762503E2,-1.2653774E1,1.0474689E2,3.4060672E2,5.7416296E2,-1.773414E1,2.966154E0,8.425496E1,1.5711508E2,1.0457044E1,1.874748E1,1.5742752E1,3.0709747E1,-2.5225267E1,-1.4117305E1,1.66023E-1,2.1853004E1,6.1098694E1,1.00151955E2,8.148822E0,1.2199659E2,-3.1701824E1,-2.2867048E1,-1.6153795E1,-1.0550133E1,-3.3184614E0,3.3677766E0,1.4973262E1,3.2861767E1,6.881132E1,4.991267E1,4.510523E0,5.4649353E0,7.097608E0,4.5937314E0,-1.8602351E0,-1.4575698E0,-1.2127213E0,-1.0448515E0,-1.0490118E0,-7.77857E-1,-6.5204775E-1,-3.7504062E-1,-3.6071178E-1,-1.03737585E-1,9.68921E-2,3.3558676E-1,7.123093E-1,1.2077057E0,1.9246582E0,1.2874506E0,3.520673E0,2.079321E0,1.8174124E0,2.7114635E0],"categories":[],"categories_nodes":[],"categories_segments":[],"categories_sizes":[],"default_left":[0,0,0,0,0,0,0,0,0,0,0,0,0,0,0,0,0,0,0,0,0,0,0,0,0,0,0,0,0,0,0,0,0,0,0,0,0,0,0,0,0,0,0,0,0,0,0,0,0,0,0,0,0,0,0,0,0],"id":27,"left_children":[1,3,5,7,9,11,13,15,17,19,21,-1,-1,-1,-1,23,25,27,29,31,33,-1,35,37,39,41,43,45,47,49,51,53,55,-1,-1,-1,-1,-1,-1,-1,-1,-1,-1,-1,-1,-1,-1,-1,-1,-1,-1,-1,-1,-1,-1,-1,-1],"loss_changes":[3.642125E7,6.3101025E6,1.582128E6,9.038265E5,4.986435E5,8.96806E5,1.90701E5,2.32491E5,1.4786467E5,1.208805E5,7.4945E3,0E0,0E0,0E0,0E0,4.1993875E4,4.194925E4,2.7188316E4,2.6849172E4,8.9025625E3,8.59925E3,0E0,7.8353125E2,9.35725E3,5.107125E3,1.02968125E4,1.5928297E4,5.6393965E3,6.0596787E3,1.1511367E3,4.5363906E3,6.484375E2,1.6590938E3,0E0,0E0,0E0,0E0,0E0,0E0,0E0,0E0,0E0,0E0,0E0,0E0,0E0,0E0,0E0,0E0,0E0,0E0,0E0,0E0,0E0,0E0,0E0,0E0],"parents":[2147483647,0,0,1,1,2,2,3,3,4,4,5,5,6,6,7,7,8,8,9,9,10,10,15,15,16,16,17,17,18,18,19,19,20,20,22,22,23,23,24,24,25,25,26,26,27,27,28,28,29,29,30,30,31,31,32,32],"right_children":[2,4,6,8,10,12,14,16,18,20,22,-1,-1,-1,-1,24,26,28,30,32,34,-1,36,38,40,42,44,46,48,50,52,54,56,-1,-1,-1,-1,-1,-1,-1,-1,-1,-1,-1,-1,-1,-1,-1,-1,-1,-1,-1,-1,-1,-1,-1,-1],"split_conditions":[8.416667E2,1.8571428E2,7.401816E2,2.1428572E1,4.8235294E2,2.2E1,1.55E3,-2.3076923E1,7.692308E1,3.473684E2,2.3E1,1.0457044E1,1.874748E1,1.5742752E1,3.0709747E1,-4.6666668E1,0E0,4.5323742E1,1.125E2,-1.0126582E1,4.090909E2,8.148822E0,4.7075E5,-6.610169E1,-3.4848484E1,4.85E5,5.2205297E5,4.8928828E5,6.455696E1,5.0406834E1,-2.5E0,1.3420345E6,2.2E1,4.510523E0,5.4649353E0,7.097608E0,4.5937314E0,-1.8602351E0,-1.4575698E0,-1.2127213E0,-1.0448515E0,-1.0490118E0,-7.77857E-1,-6.5204775E-1,-3.7504062E-1,-3.6071178E-1,-1.03737585E-1,9.68921E-2,3.3558676E-1,7.123093E-1,1.2077057E0,1.9246582E0,1.2874506E0,3.520673E0,2.079321E0,1.8174124E0,2.7114635E0],"split_indices":[11,11,13,11,11,5,11,11,11,11,5,0,0,0,0,11,11,11,11,7,11,0,6,11,11,6,6,6,11,13,7,6,5,0,0,0,0,0,0,0,0,0,0,0,0,0,0,0,0,0,0,0,0,0,0,0,0],"split_type":[0,0,0,0,0,0,0,0,0,0,0,0,0,0,0,0,0,0,0,0,0,0,0,0,0,0,0,0,0,0,0,0,0,0,0,0,0,0,0,0,0,0,0,0,0,0,0,0,0,0,0,0,0,0,0,0,0],"sum_hessian":[1.2115E4,1.1864E4,2.51E2,1.1388E4,4.76E2,2.15E2,3.6E1,8.593E3,2.795E3,3.44E2,1.32E2,4.6E1,1.69E2,6E0,3E1,2.796E3,5.797E3,2.435E3,3.6E2,1.42E2,2.02E2,1.1E2,2.2E1,7.43E2,2.053E3,3.688E3,2.109E3,1.166E3,1.269E3,2.23E2,1.37E2,8.1E1,6.1E1,1.02E2,1E2,1.1E1,1.1E1,2.31E2,5.12E2,1.198E3,8.55E2,4.02E2,3.286E3,1.159E3,9.5E2,2.81E2,8.85E2,8.9E2,3.79E2,2.09E2,1.4E1,7.4E1,6.3E1,7.5E1,6E0,1.7E1,4.4E1],"tree_param":{"num_deleted":"0","num_feature":"20","num_nodes":"57","size_leaf_vector":"1"}},{"base_weights":[1.2255354E-1,-8.179925E0,3.2145273E2,-1.2166572E1,8.754256E1,1.8245503E2,3.8309543E2,-1.7716623E1,7.100969E-2,6.481507E1,1.2057494E2,9.953409E0,8.021543E0,3.2903774E1,3.6449515E2,-2.4456467E1,-1.4343924E1,-1.9981892E0,1.6698889E1,4.7725178E1,7.848781E1,5.1605415E0,1.3994612E2,2.3316662E1,3.554178E2,-3.1912878E1,-2.2583239E1,-1.6102953E1,-1.1777151E1,-5.9579835E0,2.1204734E0,1.2997609E1,2.7706886E1,3.602557E0,4.5030216E1,3.331731E0,4.2772994E0,8.711062E0,1.2976833E2,1.781081E1,5.192783E0,-1.9901526E0,-1.5064899E0,-1.2230481E0,-1.0505341E0,-1.067773E0,-7.785393E-1,-7.342904E-1,-5.2434856E-1,-4.219195E-1,-2.0820825E-1,4.899638E-2,2.696374E-1,5.9917456E-1,8.2913685E-1,1.0099993E0,1.5016447E0,1.9141715E0,2.584788E0,4.361352E0,6.8056893E0],"categories":[],"categories_nodes":[],"categories_segments":[],"categories_sizes":[],"default_left":[0,0,0,0,0,0,0,0,0,0,0,0,0,0,0,0,0,0,0,0,0,0,0,0,0,0,0,0,0,0,0,0,0,0,0,0,0,0,0,0,0,0,0,0,0,0,0,0,0,0,0,0,0,0,0,0,0,0,0,0,0],"id":28,"left_children":[1,3,5,7,9,11,13,15,17,19,21,-1,-1,-1,23,25,27,29,31,33,35,-1,37,-1,39,41,43,45,47,49,51,53,55,-1,57,-1,-1,-1,59,-1,-1,-1,-1,-1,-1,-1,-1,-1,-1,-1,-1,-1,-1,-1,-1,-1,-1,-1,-1,-1,-1],"loss_changes":[3.2094038E7,4.476227E6,2.526266E6,7.647036E5,3.4428325E5,2.82275E3,8.2911E5,1.75727E5,1.20937414E5,6.1680625E4,4.94655E4,0E0,0E0,0E0,1.729E4,3.53435E4,2.3130625E4,5.0994742E4,1.5489172E4,5.0813438E3,7.1835625E3,0E0,7.741E3,0E0,3.64E2,6.06025E3,5.589625E3,8.226375E3,7.7416562E3,7.057203E3,5.716146E3,8.665508E2,1.0870625E3,0E0,3.2825156E3,0E0,0E0,0E0,7.293125E3,0E0,0E0,0E0,0E0,0E0,0E0,0E0,0E0,0E0,0E0,0E0,0E0,0E0,0E0,0E0,0E0,0E0,0E0,0E0,0E0,0E0,0E0],"parents":[2147483647,0,0,1,1,2,2,3,3,4,4,5,5,6,6,7,7,8,8,9,9,10,10,14,14,15,15,16,16,17,17,18,18,19,19,20,20,22,22,24,24,25,25,26,26,27,27,28,28,29,29,30,30,31,31,32,32,34,34,38,38],"right_children":[2,4,6,8,10,12,14,16,18,20,22,-1,-1,-1,24,26,28,30,32,34,36,-1,38,-1,40,42,44,46,48,50,52,54,56,-1,58,-1,-1,-1,60,-1,-1,-1,-1,-1,-1,-1,-1,-1,-1,-1,-1,-1,-1,-1,-1,-1,-1,-1,-1,-1,-1],"split_conditions":[6.952381E2,1.7777777E2,1.3513514E1,1.0526316E1,4.090909E2,1.9E1,1.9E1,-2.5E1,6.7741936E1,2.9473685E2,4.8235294E2,9.953409E0,8.021543E0,3.2903774E1,3.15E1,-5.2941177E1,-5.4945054E0,3.5714287E1,1.125E2,1.9E1,3.473684E2,5.1605415E0,-1.9565218E1,2.3316662E1,2.14E2,-8.1343285E1,-4.0298508E1,4.85E5,5.08888E5,4.91888E5,5.7692307E1,1E2,1.6333334E1,3.602557E0,2.2E1,3.331731E0,4.2772994E0,8.711062E0,1.03333336E2,1.781081E1,5.192783E0,-1.9901526E0,-1.5064899E0,-1.2230481E0,-1.0505341E0,-1.067773E0,-7.785393E-1,-7.342904E-1,-5.2434856E-1,-4.219195E-1,-2.0820825E-1,4.899638E-2,2.696374E-1,5.9917456E-1,8.2913685E-1,1.0099993E0,1.5016447E0,1.9141715E0,2.584788E0,4.361352E0,6.8056893E0],"split_indices":[11,11,7,11,11,5,5,11,11,11,11,0,0,0,10,11,11,11,11,5,11,0,7,0,1,11,11,6,6,6,11,11,9,0,5,0,0,0,9,0,0,0,0,0,0,0,0,0,0,0,0,0,0,0,0,0,0,0,0,0,0],"split_type":[0,0,0,0,0,0,0,0,0,0,0,0,0,0,0,0,0,0,0,0,0,0,0,0,0,0,0,0,0,0,0,0,0,0,0,0,0,0,0,0,0,0,0,0,0,0,0,0,0,0,0,0,0,0,0,0,0,0,0,0,0],"sum_hessian":[1.2028E4,1.1726E4,3.02E2,1.1258E4,4.68E2,9.4E1,2.08E2,7.745E3,3.513E3,2.79E2,1.89E2,4.9E1,4.5E1,1.1E1,1.97E2,2.581E3,5.164E3,3.125E3,3.88E2,1.26E2,1.53E2,1.03E2,8.6E1,1.2E1,1.85E2,5.15E2,2.066E3,3.061E3,2.103E3,1.593E3,1.532E3,2.92E2,9.6E1,1E1,1.16E2,6.1E1,9.2E1,1.6E1,7E1,1.84E2,1E0,9.1E1,4.24E2,9.35E2,1.131E3,2.78E2,2.783E3,6.43E2,1.46E3,6.67E2,9.26E2,1.137E3,3.95E2,2.31E2,6.1E1,2.5E1,7.1E1,6.1E1,5.5E1,1.1E1,5.9E1],"tree_param":{"num_deleted":"0","num_feature":"20","num_nodes":"61","size_leaf_vector":"1"}},{"base_weights":[2.7382948E-2,-7.861151E0,3.0705322E2,-1.1526313E1,8.3389626E1,1.834513E2,3.6824896E2,-1.5970972E1,2.1614943E0,6.3640022E1,1.1393765E2,1.713335E2,1.4481575E1,1.6933182E1,2.7318344E1,-2.2242321E1,-1.235261E1,-1.4179355E-1,1.6098799E1,4.5849644E1,7.536697E1,4.940374E0,1.3104788E2,9.439349E0,7.6458054E0,-2.860167E1,-2.0231928E1,-1.4179582E1,-9.484582E0,-3.5290518E0,2.3987544E0,1.2596344E1,2.637279E1,3.4388044E0,4.2956047E1,3.1925554E0,4.0895367E0,7.8033586E0,1.1821437E2,-1.681441E0,-1.31287E0,-1.0928061E0,-9.2213297E-1,-9.395574E-1,-6.8064016E-1,-5.9030205E-1,-3.4193346E-1,-3.3143955E-1,-1.1793802E-1,6.79593E-2,2.5091967E-1,5.955567E-1,9.3524593E-1,7.073629E-1,1.4109985E0,1.8145437E0,2.452016E0,6.3146887E0,4.218904E0],"categories":[],"categories_nodes":[],"categories_segments":[],"categories_sizes":[],"default_left":[0,0,0,0,0,0,0,0,0,0,0,0,0,0,0,0,0,0,0,0,0,0,0,0,0,0,0,0,0,0,0,0,0,0,0,0,0,0,0,0,0,0,0,0,0,0,0,0,0,0,0,0,0,0,0,0,0,0,0],"id":29,"left_children":[1,3,5,7,9,11,13,15,17,19,21,23,-1,-1,-1,25,27,29,31,33,35,-1,37,-1,-1,39,41,43,45,47,49,51,53,-1,55,-1,-1,-1,57,-1,-1,-1,-1,-1,-1,-1,-1,-1,-1,-1,-1,-1,-1,-1,-1,-1,-1,-1,-1],"loss_changes":[2.919943E7,3.9320728E6,2.216744E6,6.875605E5,2.6665225E5,8.1617E4,8.74172E5,1.93311E5,8.8955875E4,5.454275E4,3.287325E4,1.3475E3,0E0,0E0,0E0,3.931E4,2.8223312E4,2.0480932E4,1.3809578E4,4.542047E3,7.0574375E3,0E0,7.2375E3,0E0,0E0,7.920375E3,6.4960625E3,8.38E3,1.2873547E4,3.6845146E3,3.6968574E3,1.01197656E3,1.8364609E3,0E0,2.3972344E3,0E0,0E0,0E0,4.9260625E3,0E0,0E0,0E0,0E0,0E0,0E0,0E0,0E0,0E0,0E0,0E0,0E0,0E0,0E0,0E0,0E0,0E0,0E0,0E0,0E0],"parents":[2147483647,0,0,1,1,2,2,3,3,4,4,5,5,6,6,7,7,8,8,9,9,10,10,11,11,15,15,16,16,17,17,18,18,19,19,20,20,22,22,25,25,26,26,27,27,28,28,29,29,30,30,31,31,32,32,34,34,38,38],"right_children":[2,4,6,8,10,12,14,16,18,20,22,24,-1,-1,-1,26,28,30,32,34,36,-1,38,-1,-1,40,42,44,46,48,50,52,54,-1,56,-1,-1,-1,58,-1,-1,-1,-1,-1,-1,-1,-1,-1,-1,-1,-1,-1,-1,-1,-1,-1,-1,-1,-1],"split_conditions":[6.952381E2,1.7777777E2,1.55E3,2.1428572E1,4.090909E2,4.85E5,4.35E5,-1.9248827E1,6.7741936E1,2.9473685E2,4.8235294E2,1.9E1,1.4481575E1,1.6933182E1,2.7318344E1,-4.6666668E1,0E0,4.108527E1,1.125E2,1.9E1,3.473684E2,4.940374E0,4.7075E5,9.439349E0,7.6458054E0,-6.610169E1,-3.4444443E1,4.85E5,5.2E5,4.8928828E5,5.7692307E1,1.374E6,1.8E1,3.4388044E0,2.2E1,3.1925554E0,4.0895367E0,7.8033586E0,2E1,-1.681441E0,-1.31287E0,-1.0928061E0,-9.2213297E-1,-9.395574E-1,-6.8064016E-1,-5.9030205E-1,-3.4193346E-1,-3.3143955E-1,-1.1793802E-1,6.79593E-2,2.5091967E-1,5.955567E-1,9.3524593E-1,7.073629E-1,1.4109985E0,1.8145437E0,2.452016E0,6.3146887E0,4.218904E0],"split_indices":[11,11,11,11,11,6,6,11,11,11,11,5,0,0,0,11,11,11,11,5,11,0,6,0,0,11,11,6,6,6,11,6,8,0,5,0,0,0,5,0,0,0,0,0,0,0,0,0,0,0,0,0,0,0,0,0,0,0,0],"split_type":[0,0,0,0,0,0,0,0,0,0,0,0,0,0,0,0,0,0,0,0,0,0,0,0,0,0,0,0,0,0,0,0,0,0,0,0,0,0,0,0,0,0,0,0,0,0,0,0,0,0,0,0,0,0,0,0,0,0,0],"sum_hessian":[1.2054E4,1.1753E4,3.01E2,1.13E4,4.53E2,1.01E2,2E2,8.53E3,2.77E3,2.77E2,1.76E2,9.3E1,8E0,1.74E2,2.6E1,3.119E3,5.411E3,2.378E3,3.92E2,1.12E2,1.65E2,9.7E1,7.9E1,4.3E1,5E1,7.46E2,2.373E3,3.303E3,2.108E3,1.019E3,1.359E3,2.94E2,9.8E1,1E1,1.02E2,6.3E1,1.02E2,2.3E1,5.6E1,2.33E2,5.13E2,1.238E3,1.135E3,3.58E2,2.945E3,1.121E3,9.87E2,2.78E2,7.41E2,9.74E2,3.85E2,2.67E2,2.7E1,1.4E1,8.4E1,